{"learner":{"attributes":{"scikit_learn":"{\"_estimator_type\": \"classifier\"}"},"feature_names":[],"feature_types":[],"gradient_booster":{"model":{"gbtree_model_param":{"num_parallel_tree":"1","num_trees":"800"},"iteration_indptr":[0,4,8,12,16,20,24,28,32,36,40,44,48,52,56,60,64,68,72,76,80,84,88,92,96,100,104,108,112,116,120,124,128,132,136,140,144,148,152,156,160,164,168,172,176,180,184,188,192,196,200,204,208,212,216,220,224,228,232,236,240,244,248,252,256,260,264,268,272,276,280,284,288,292,296,300,304,308,312,316,320,324,328,332,336,340,344,348,352,356,360,364,368,372,376,380,384,388,392,396,400,404,408,412,416,420,424,428,432,436,440,444,448,452,456,460,464,468,472,476,480,484,488,492,496,500,504,508,512,516,520,524,528,532,536,540,544,548,552,556,560,564,568,572,576,580,584,588,592,596,600,604,608,612,616,620,624,628,632,636,640,644,648,652,656,660,664,668,672,676,680,684,688,692,696,700,704,708,712,716,720,724,728,732,736,740,744,748,752,756,760,764,768,772,776,780,784,788,792,796,800],"tree_info":[0,1,2,3,0,1,2,3,0,1,2,3,0,1,2,3,0,1,2,3,0,1,2,3,0,1,2,3,0,1,2,3,0,1,2,3,0,1,2,3,0,1,2,3,0,1,2,3,0,1,2,3,0,1,2,3,0,1,2,3,0,1,2,3,0,1,2,3,0,1,2,3,0,1,2,3,0,1,2,3,0,1,2,3,0,1,2,3,0,1,2,3,0,1,2,3,0,1,2,3,0,1,2,3,0,1,2,3,0,1,2,3,0,1,2,3,0,1,2,3,0,1,2,3,0,1,2,3,0,1,2,3,0,1,2,3,0,1,2,3,0,1,2,3,0,1,2,3,0,1,2,3,0,1,2,3,0,1,2,3,0,1,2,3,0,1,2,3,0,1,2,3,0,1,2,3,0,1,2,3,0,1,2,3,0,1,2,3,0,1,2,3,0,1,2,3,0,1,2,3,0,1,2,3,0,1,2,3,0,1,2,3,0,1,2,3,0,1,2,3,0,1,2,3,0,1,2,3,0,1,2,3,0,1,2,3,0,1,2,3,0,1,2,3,0,1,2,3,0,1,2,3,0,1,2,3,0,1,2,3,0,1,2,3,0,1,2,3,0,1,2,3,0,1,2,3,0,1,2,3,0,1,2,3,0,1,2,3,0,1,2,3,0,1,2,3,0,1,2,3,0,1,2,3,0,1,2,3,0,1,2,3,0,1,2,3,0,1,2,3,0,1,2,3,0,1,2,3,0,1,2,3,0,1,2,3,0,1,2,3,0,1,2,3,0,1,2,3,0,1,2,3,0,1,2,3,0,1,2,3,0,1,2,3,0,1,2,3,0,1,2,3,0,1,2,3,0,1,2,3,0,1,2,3,0,1,2,3,0,1,2,3,0,1,2,3,0,1,2,3,0,1,2,3,0,1,2,3,0,1,2,3,0,1,2,3,0,1,2,3,0,1,2,3,0,1,2,3,0,1,2,3,0,1,2,3,0,1,2,3,0,1,2,3,0,1,2,3,0,1,2,3,0,1,2,3,0,1,2,3,0,1,2,3,0,1,2,3,0,1,2,3,0,1,2,3,0,1,2,3,0,1,2,3,0,1,2,3,0,1,2,3,0,1,2,3,0,1,2,3,0,1,2,3,0,1,2,3,0,1,2,3,0,1,2,3,0,1,2,3,0,1,2,3,0,1,2,3,0,1,2,3,0,1,2,3,0,1,2,3,0,1,2,3,0,1,2,3,0,1,2,3,0,1,2,3,0,1,2,3,0,1,2,3,0,1,2,3,0,1,2,3,0,1,2,3,0,1,2,3,0,1,2,3,0,1,2,3,0,1,2,3,0,1,2,3,0,1,2,3,0,1,2,3,0,1,2,3,0,1,2,3,0,1,2,3,0,1,2,3,0,1,2,3,0,1,2,3,0,1,2,3,0,1,2,3,0,1,2,3,0,1,2,3,0,1,2,3,0,1,2,3,0,1,2,3,0,1,2,3,0,1,2,3,0,1,2,3,0,1,2,3,0,1,2,3,0,1,2,3,0,1,2,3,0,1,2,3,0,1,2,3,0,1,2,3,0,1,2,3,0,1,2,3,0,1,2,3,0,1,2,3,0,1,2,3,0,1,2,3,0,1,2,3,0,1,2,3,0,1,2,3,0,1,2,3,0,1,2,3,0,1,2,3,0,1,2,3,0,1,2,3,0,1,2,3,0,1,2,3,0,1,2,3,0,1,2,3,0,1,2,3,0,1,2,3,0,1,2,3,0,1,2,3,0,1,2,3,0,1,2,3,0,1,2,3,0,1,2,3],"trees":[{"base_weights":[-3.6900368E-2,7.612903E-1,-1.3907285E-1,1.7391305E-1,1.4366198E0,-3.723404E-1,2.413793E-1,8.0851066E-1,-4.1509435E-1,5.1428574E-1,7.826087E-2,7.5E-1,-4.1758242E-1,-2.793296E-1,5.52901E-1,3.9428574E-1,-1.20000005E-1,-1.6363637E-1,3.529412E-2,3.6E-1,-0E0,-4.57223E-1,2.8695655E-1,7.5E-1,-4.7741935E-1,-1.0526316E-1,8.3495146E-1,-1.52126E-1,-1.3953489E-2,-1.0588236E-1,3.9130437E-1,-1.8688524E-1,1.4634146E-2,4.1538465E-1,-1.7922078E-1,3.0162165E-1,-1.4482759E-1],"categories":[],"categories_nodes":[],"categories_segments":[],"categories_sizes":[],"default_left":[0,0,0,0,0,0,0,0,0,0,0,0,0,0,0,0,0,0,0,0,0,0,0,0,0,0,0,0,0,0,0,0,0,0,0,0,0],"id":0,"left_children":[1,3,5,7,9,11,13,15,17,-1,-1,19,21,23,25,-1,-1,-1,-1,-1,-1,27,-1,29,31,33,35,-1,-1,-1,-1,-1,-1,-1,-1,-1,-1],"loss_changes":[1.3918936E1,7.4356956E0,1.3490694E1,4.634109E0,2.4501781E0,5.086217E0,9.562746E0,4.1167173E0,5.24266E-1,0E0,0E0,1.3499999E0,5.3941402E0,4.920319E0,6.8867884E0,0E0,0E0,0E0,0E0,0E0,0E0,1.8016548E0,0E0,2.9060106E0,1.5140986E0,9.534255E0,6.269047E0,0E0,0E0,0E0,0E0,0E0,0E0,0E0,0E0,0E0,0E0],"parents":[2147483647,0,0,1,1,2,2,3,3,4,4,5,5,6,6,7,7,8,8,11,11,12,12,13,13,14,14,21,21,23,23,24,24,25,25,26,26],"right_children":[2,4,6,8,10,12,14,16,18,-1,-1,20,22,24,26,-1,-1,-1,-1,-1,-1,28,-1,30,32,34,36,-1,-1,-1,-1,-1,-1,-1,-1,-1,-1],"split_conditions":[-1.0344387E0,-2.9289028E-1,3.0253103E-1,-7.487277E-1,8.5231656E-1,-1.499107E0,-7.744725E-1,7.172522E-1,1.0104291E0,5.1428574E-1,7.826087E-2,-1.4253265E0,2.0121067E0,-8.6209035E-1,-4.0013117E-1,3.9428574E-1,-1.20000005E-1,-1.6363637E-1,3.529412E-2,3.6E-1,-0E0,1.6467782E0,2.8695655E-1,9.2038944E-2,4.192833E-1,-1.3576666E0,9.517571E-1,-1.52126E-1,-1.3953489E-2,-1.0588236E-1,3.9130437E-1,-1.8688524E-1,1.4634146E-2,4.1538465E-1,-1.7922078E-1,3.0162165E-1,-1.4482759E-1],"split_indices":[19,11,2,14,15,17,21,16,14,0,0,14,12,0,16,0,0,0,0,0,0,17,0,3,16,14,17,0,0,0,0,0,0,0,0,0,0],"split_type":[0,0,0,0,0,0,0,0,0,0,0,0,0,0,0,0,0,0,0,0,0,0,0,0,0,0,0,0,0,0,0,0,0,0,0,0,0],"sum_hessian":[1.68375E2,1.8375E1,1.5E2,1.05E1,7.875E0,9.3E1,5.7E1,4.875E0,5.625E0,6E0,1.875E0,3E0,9E1,2.1375E1,3.5625E1,3.375E0,1.5E0,4.5E0,1.125E0,1.5E0,1.5E0,8.8125E1,1.875E0,3E0,1.8375E1,1.0875E1,2.475E1,7.8375E1,9.75E0,1.125E0,1.875E0,1.425E1,4.125E0,2.25E0,8.625E0,2.2125E1,2.625E0],"tree_param":{"num_deleted":"0","num_feature":"23","num_nodes":"37","size_leaf_vector":"1"}},{"base_weights":[4.2243265E-2,7.4128984E-3,4.5000002E-1,-1.2731007E-1,3.4986946E-1,-3.541147E-1,3.0981068E-2,1.0985916E0,1.75E-1,-4.2673522E-1,3.6E-1,7.4157304E-1,-9.6E-2,4.9787238E-1,-0E0,-1.8202247E-1,4.6025103E-1,1.0909091E-2,-1.7770036E-1,3.7846157E-1,-1.5E-1,-1.8620689E-1,1.8367348E-2,1.7647061E-1,-1.3043478E-1,1.9802956E-1,-1.6363637E-1],"categories":[],"categories_nodes":[],"categories_segments":[],"categories_sizes":[],"default_left":[0,0,0,0,0,0,0,0,0,0,0,0,0,0,0,0,0,0,0,0,0,0,0,0,0,0,0],"id":1,"left_children":[1,3,-1,5,7,9,11,13,15,17,-1,19,21,-1,23,-1,25,-1,-1,-1,-1,-1,-1,-1,-1,-1,-1],"loss_changes":[8.703002E0,7.824353E0,0E0,4.381938E0,6.0759544E0,6.1692195E0,6.62427E0,5.4695835E0,9.198957E0,3.750534E0,0E0,7.8127913E0,5.19388E0,0E0,1.2787724E0,0E0,6.364562E0,0E0,0E0,0E0,0E0,0E0,0E0,0E0,0E0,0E0,0E0],"parents":[2147483647,0,0,1,1,3,3,4,4,5,5,6,6,7,7,8,8,9,9,11,11,12,12,14,14,16,16],"right_children":[2,4,-1,6,8,10,12,14,16,18,-1,20,22,-1,24,-1,26,-1,-1,-1,-1,-1,-1,-1,-1,-1,-1],"split_conditions":[1.9238375E0,6.207476E-1,4.5000002E-1,-4.3209866E-1,-7.487277E-1,1.3930067E0,-8.6209035E-1,2.1463041E-1,-9.3891144E-2,-6.271938E-1,3.6E-1,9.0893936E-1,-5.6997865E-1,4.9787238E-1,-4.6173733E-1,-1.8202247E-1,1.7208579E0,1.0909091E-2,-1.7770036E-1,3.7846157E-1,-1.5E-1,-1.8620689E-1,1.8367348E-2,1.7647061E-1,-1.3043478E-1,1.9802956E-1,-1.6363637E-1],"split_indices":[14,5,0,7,14,15,0,0,15,13,0,14,6,0,12,0,14,0,0,0,0,0,0,0,0,0,0],"split_type":[0,0,0,0,0,0,0,0,0,0,0,0,0,0,0,0,0,0,0,0,0,0,0,0,0,0,0],"sum_hessian":[1.70625E2,1.67625E2,3E0,1.2075E2,4.6875E1,4.9125E1,7.1625E1,7.875E0,3.9E1,4.7625E1,1.5E0,1.0125E1,6.15E1,4.875E0,3E0,1.0125E1,2.8875E1,1.275E1,3.4875E1,7.125E0,3E0,1.35E1,4.8E1,1.125E0,1.875E0,2.4375E1,4.5E0],"tree_param":{"num_deleted":"0","num_feature":"23","num_nodes":"27","size_leaf_vector":"1"}},{"base_weights":[-1.7595308E-2,-5.339367E-1,8.1668116E-2,-1.9162305E-1,1.0526316E-1,2.3503326E-1,-4.5914397E-1,2.4000001E-1,-1.3846155E-1,-2.2573363E-2,4.7537473E-1,4E-1,-5.7391304E-1,1.1489362E0,-1.5841584E-1,1.0526316E0,1.9195047E-1,3.6E-1,-1.3043478E-1,-1.9162305E-1,-2.1276596E-1,-0E0,4.6285716E-1,-9.933775E-2,9.818182E-2,-7.2000004E-2,4.6909094E-1,-6.1077844E-2,1.7560975E-1,1.7647061E-1,-1.5789475E-1],"categories":[],"categories_nodes":[],"categories_segments":[],"categories_sizes":[],"default_left":[0,0,0,0,0,0,0,0,0,0,0,0,0,0,0,0,0,0,0,0,0,0,0,0,0,0,0,0,0,0,0],"id":2,"left_children":[1,3,5,-1,7,9,11,-1,-1,13,15,17,19,21,23,25,27,-1,-1,-1,29,-1,-1,-1,-1,-1,-1,-1,-1,-1,-1],"loss_changes":[8.78238E0,1.9179039E0,1.2041155E1,0E0,2.2396762E0,6.9914837E0,3.3971915E0,0E0,0E0,8.99443E0,9.3485985E0,3.4434783E0,5.372305E-1,2.6589665E0,4.3444734E0,1.2925552E1,6.402044E0,0E0,0E0,0E0,1.7851261E0,0E0,0E0,0E0,0E0,0E0,0E0,0E0,0E0,0E0,0E0],"parents":[2147483647,0,0,1,1,2,2,4,4,5,5,6,6,9,9,10,10,11,11,12,12,13,13,14,14,15,15,16,16,20,20],"right_children":[2,4,6,-1,8,10,12,-1,-1,14,16,18,20,22,24,26,28,-1,-1,-1,30,-1,-1,-1,-1,-1,-1,-1,-1,-1,-1],"split_conditions":[-7.835748E-1,3.2928377E-1,8.709094E-1,-1.9162305E-1,-1.0235662E0,9.2038944E-2,-4.3209866E-1,2.4000001E-1,-1.3846155E-1,-7.945807E-1,-4.3209866E-1,1.6468067E-1,2.0330813E0,-1.1752714E0,-2.0898627E-2,-4.212575E-1,1.6468067E-1,3.6E-1,-1.3043478E-1,-1.9162305E-1,9.5811594E-1,-0E0,4.6285716E-1,-9.933775E-2,9.818182E-2,-7.2000004E-2,4.6909094E-1,-6.1077844E-2,1.7560975E-1,1.7647061E-1,-1.5789475E-1],"split_indices":[3,4,4,0,17,3,7,0,0,11,7,14,1,15,21,9,14,0,0,0,9,0,0,0,0,0,0,0,0,0,0],"split_type":[0,0,0,0,0,0,0,0,0,0,0,0,0,0,0,0,0,0,0,0,0,0,0,0,0,0,0,0,0,0,0],"sum_hessian":[1.695E2,2.6625E1,1.42875E2,2.2875E1,3.75E0,1.1175E2,3.1125E1,1.5E0,2.25E0,5.4375E1,5.7375E1,3.375E0,2.775E1,4.875E0,4.95E1,1.8E1,3.9375E1,1.5E0,1.875E0,2.2875E1,4.875E0,1.5E0,3.375E0,3.675E1,1.275E1,5.25E0,1.275E1,1.9875E1,1.95E1,1.125E0,3.75E0],"tree_param":{"num_deleted":"0","num_feature":"23","num_nodes":"31","size_leaf_vector":"1"}},{"base_weights":[-7.2516315E-3,5E-1,-1.309417E-1,9.090909E-2,1.1538461E0,3.7926674E-2,-5.301205E-1,7.605634E-1,-3.3628318E-1,1.4606742E0,-1.3043478E-1,-2E-1,5.9414226E-1,4.6153846E-1,-5.987261E-1,4.2439026E-1,-1.0526316E-1,-5.3846157E-1,3.176471E-1,3.529412E-2,4.8000002E-1,1.0695187E-2,-5.979381E-1,9.7206706E-1,-4.7058824E-1,3.176471E-1,-1.0588236E-1,6.896552E-2,-1.9453925E-1,-1.4482759E-1,1.7647061E-1,-1.831579E-1,3.529412E-2,-1.3636364E-1,1.2233011E-1,-1.9135135E-1,3.529412E-2,-1.4482759E-1,3.5696205E-1,-1.7288136E-1,3.529412E-2,1.20000005E-1,-1.0588236E-1],"categories":[],"categories_nodes":[],"categories_segments":[],"categories_sizes":[],"default_left":[0,0,0,0,0,0,0,0,0,0,0,0,0,0,0,0,0,0,0,0,0,0,0,0,0,0,0,0,0,0,0,0,0,0,0,0,0,0,0,0,0,0,0],"id":3,"left_children":[1,3,5,7,9,11,13,15,17,19,-1,21,23,25,27,-1,29,31,-1,-1,-1,33,35,37,39,-1,-1,41,-1,-1,-1,-1,-1,-1,-1,-1,-1,-1,-1,-1,-1,-1,-1],"loss_changes":[1.0880622E1,8.98951E0,9.41519E0,6.5493298E0,6.9717407E0,1.32038E1,3.09972E0,5.1749263E0,4.5542383E0,1.8934574E0,0E0,5.87545E0,1.24787855E1,1.954751E0,1.3482018E0,0E0,1.5274901E0,6.8649673E-1,0E0,0E0,0E0,8.82166E0,7.67416E-1,7.6643944E0,5.962113E-1,0E0,0E0,6.474645E-1,0E0,0E0,0E0,0E0,0E0,0E0,0E0,0E0,0E0,0E0,0E0,0E0,0E0,0E0,0E0],"parents":[2147483647,0,0,1,1,2,2,3,3,4,4,5,5,6,6,7,7,8,8,9,9,11,11,12,12,13,13,14,14,16,16,17,17,21,21,22,22,23,23,24,24,27,27],"right_children":[2,4,6,8,10,12,14,16,18,20,-1,22,24,26,28,-1,30,32,-1,-1,-1,34,36,38,40,-1,-1,42,-1,-1,-1,-1,-1,-1,-1,-1,-1,-1,-1,-1,-1,-1,-1],"split_conditions":[-5.6997865E-1,1.1998384E-1,6.7206633E-1,-3.8710275E-1,1.4605929E0,4.353202E-1,-9.097387E-1,-5.039518E-1,1.6716447E0,-7.945807E-1,-1.3043478E-1,2.4404018E-1,6.4276E-1,-1.442765E-1,-1.3893669E0,4.2439026E-1,1.835758E-1,1.0104291E0,3.176471E-1,3.529412E-2,4.8000002E-1,-7.487277E-1,1.4994205E0,-4.6173733E-1,5.8640456E-1,3.176471E-1,-1.0588236E-1,5.8640456E-1,-1.9453925E-1,-1.4482759E-1,1.7647061E-1,-1.831579E-1,3.529412E-2,-1.3636364E-1,1.2233011E-1,-1.9135135E-1,3.529412E-2,-1.4482759E-1,3.5696205E-1,-1.7288136E-1,3.529412E-2,1.20000005E-1,-1.0588236E-1],"split_indices":[6,7,7,18,15,14,22,19,1,11,0,15,16,0,17,0,17,14,0,0,0,14,16,12,6,0,0,6,0,0,0,0,0,0,0,0,0,0,0,0,0,0,0],"split_type":[0,0,0,0,0,0,0,0,0,0,0,0,0,0,0,0,0,0,0,0,0,0,0,0,0,0,0,0,0,0,0,0,0,0,0,0,0,0,0,0,0,0,0],"sum_hessian":[1.71375E2,3.3E1,1.38375E2,2.1E1,1.2E1,9.7875E1,4.05E1,7.875E0,1.3125E1,1.0125E1,1.875E0,6.9E1,2.8875E1,2.25E0,3.825E1,4.125E0,3.75E0,1.2E1,1.125E0,1.125E0,9E0,4.575E1,2.325E1,2.1375E1,7.5E0,1.125E0,1.125E0,2.625E0,3.5625E1,2.625E0,1.125E0,1.0875E1,1.125E0,2.1E1,2.475E1,2.2125E1,1.125E0,2.625E0,1.875E1,6.375E0,1.125E0,1.5E0,1.125E0],"tree_param":{"num_deleted":"0","num_feature":"23","num_nodes":"43","size_leaf_vector":"1"}},{"base_weights":[-1.6716298E-2,-2.735294E-1,3.166341E-1,4.9839172E-1,-3.664581E-1,5.526226E-1,-4.5762688E-1,9.4972825E-1,-2.9366714E-1,-4.582612E-1,2.3102564E-1,7.3516643E-1,1.9080923E-1,-1.8468714E-1,1.7918167E-1,3.7062883E-1,-9.942517E-2,-1.4002754E-1,4.2199284E-2,4.3722382E-1,-5.175073E-1,-2.2034533E-1,3.2385072E-1,-3.3946246E-2,8.0675805E-1,-1.12497576E-1,7.0895135E-1,-1.2952857E-1,3.487368E-1,-4.370086E-2,-1.6528794E-1,3.3041212E-1,-1.6716024E-1,1.5189323E-1,-1.3261588E-1,3.8304764E-1,1.6917154E-1,2.4252269E-1,-1.2370784E-1,-1.07819065E-1,2.8625047E-1],"categories":[],"categories_nodes":[],"categories_segments":[],"categories_sizes":[],"default_left":[0,0,0,0,0,0,0,0,0,0,0,0,0,0,0,0,0,0,0,0,0,0,0,0,0,0,0,0,0,0,0,0,0,0,0,0,0,0,0,0,0],"id":4,"left_children":[1,3,5,7,9,11,13,15,17,19,21,23,25,-1,-1,-1,-1,-1,-1,27,29,31,-1,33,35,37,39,-1,-1,-1,-1,-1,-1,-1,-1,-1,-1,-1,-1,-1,-1],"loss_changes":[1.4223822E1,6.91222E0,1.3467704E1,4.033942E0,4.730315E0,3.5505867E0,3.2746823E0,2.9450397E0,4.0972415E-1,4.121269E0,4.792862E0,2.053255E0,3.237031E0,0E0,0E0,0E0,0E0,0E0,0E0,3.7146747E0,7.819786E-1,4.440007E0,0E0,1.1261953E0,3.127058E0,4.071025E0,2.3221307E0,0E0,0E0,0E0,0E0,0E0,0E0,0E0,0E0,0E0,0E0,0E0,0E0,0E0,0E0],"parents":[2147483647,0,0,1,1,2,2,3,3,4,4,5,5,6,6,7,7,8,8,9,9,10,10,11,11,12,12,19,19,20,20,21,21,23,23,24,24,25,25,26,26],"right_children":[2,4,6,8,10,12,14,16,18,20,22,24,26,-1,-1,-1,-1,-1,-1,28,30,32,-1,34,36,38,40,-1,-1,-1,-1,-1,-1,-1,-1,-1,-1,-1,-1,-1,-1],"split_conditions":[3.0253103E-1,-9.965468E-1,9.324442E-1,-8.840474E-1,1.2241489E0,2.5388664E-1,3.1713266E0,7.172522E-1,-5.233204E-1,-1.6651695E0,7.736196E-1,-1.2617903E0,5.8640456E-1,-1.8468714E-1,1.7918167E-1,3.7062883E-1,-9.942517E-2,-1.4002754E-1,4.2199284E-2,-1.6338661E-1,-1.4253265E0,-1.1450534E0,3.2385072E-1,-8.6209035E-1,-2.2202134E-1,-1.666499E0,9.2038944E-2,-1.2952857E-1,3.487368E-1,-4.370086E-2,-1.6528794E-1,3.3041212E-1,-1.6716024E-1,1.5189323E-1,-1.3261588E-1,3.8304764E-1,1.6917154E-1,2.4252269E-1,-1.2370784E-1,-1.07819065E-1,2.8625047E-1],"split_indices":[2,19,0,14,7,19,8,16,20,18,14,19,6,0,0,0,0,0,0,13,14,16,0,0,10,16,3,0,0,0,0,0,0,0,0,0,0,0,0,0,0],"split_type":[0,0,0,0,0,0,0,0,0,0,0,0,0,0,0,0,0,0,0,0,0,0,0,0,0,0,0,0,0,0,0,0,0,0,0,0,0,0,0,0,0],"sum_hessian":[1.641375E2,9.281346E1,7.132403E1,9.504044E0,8.330942E1,5.488253E1,1.6441498E1,5.9273925E0,3.5766506E0,7.241578E1,1.0893639E1,3.5792458E1,1.909007E1,1.466193E1,1.7795671E0,4.8757596E0,1.0516326E0,2.5040631E0,1.0725875E0,4.097884E0,6.83179E1,7.5940666E0,3.2995718E0,3.0927472E0,3.269971E1,1.2535185E1,6.5548854E0,2.0482693E0,2.049615E0,6.080883E0,6.2237015E1,1.0814011E0,6.5126653E0,1.2273421E0,1.8654051E0,9.688668E0,2.3011042E1,2.662485E0,9.872701E0,1.1367445E0,5.418141E0],"tree_param":{"num_deleted":"0","num_feature":"23","num_nodes":"41","size_leaf_vector":"1"}},{"base_weights":[4.9897894E-2,-9.0660535E-2,3.6340156E-1,-1.6612296E-1,5.927307E-1,8.7534666E-1,1.1231434E-1,-2.38051E-1,5.060288E-1,8.926011E-1,-1.0112034E-1,1.1070651E0,-1.3240764E-1,3.5851806E-1,-1.8563308E-1,-4.7589162E-1,-1.254818E-1,4.251038E-1,-1.5148091E-1,1.7424667E-2,3.951354E-1,1.4062062E-1,-1.3964294E-1,3.639208E-1,7.167153E-2,-1.1267683E-1,8.4167695E-1,-1.7788534E-1,1.0348497E-1,-7.371236E-2,1.374278E-1,-1.6379333E-1,2.912132E-1,1.5948641E-1,-1.2728842E-1,-1.3654554E-1,2.6607063E-1,3.637879E-1,-3.644239E-2],"categories":[],"categories_nodes":[],"categories_segments":[],"categories_sizes":[],"default_left":[0,0,0,0,0,0,0,0,0,0,0,0,0,0,0,0,0,0,0,0,0,0,0,0,0,0,0,0,0,0,0,0,0,0,0,0,0,0,0],"id":5,"left_children":[1,3,5,7,9,11,13,15,17,19,21,23,-1,25,-1,27,29,-1,31,33,-1,-1,-1,-1,-1,35,37,-1,-1,-1,-1,-1,-1,-1,-1,-1,-1,-1,-1],"loss_changes":[7.562434E0,6.2237988E0,6.7265162E0,5.329603E0,2.5933561E0,5.7742853E0,6.840291E0,2.5643706E0,6.644954E0,3.135684E0,1.1584554E0,1.0921535E0,0E0,6.501175E0,0E0,3.1955228E0,4.875266E0,0E0,3.6902375E0,1.0864627E0,0E0,0E0,0E0,0E0,0E0,5.58251E0,5.153348E0,0E0,0E0,0E0,0E0,0E0,0E0,0E0,0E0,0E0,0E0,0E0,0E0],"parents":[2147483647,0,0,1,1,2,2,3,3,4,4,5,5,6,6,7,7,8,8,9,9,10,10,11,11,13,13,15,15,16,16,18,18,19,19,25,25,26,26],"right_children":[2,4,6,8,10,12,14,16,18,20,22,24,-1,26,-1,28,30,-1,32,34,-1,-1,-1,-1,-1,36,38,-1,-1,-1,-1,-1,-1,-1,-1,-1,-1,-1,-1],"split_conditions":[6.207476E-1,1.4267998E0,-2.1234187E-1,1.7703635E0,2.0880012E-1,2.2455873E-1,9.1209763E-1,1.5591195E-1,-6.686014E-1,-7.397056E-1,1.2215626E0,1.3148605E0,-1.3240764E-1,1.6911246E-1,-1.8563308E-1,5.586059E-1,1.2011846E0,4.251038E-1,1.1177188E0,-7.945807E-1,3.951354E-1,1.4062062E-1,-1.3964294E-1,3.639208E-1,7.167153E-2,1.6716447E0,3.1713266E0,-1.7788534E-1,1.0348497E-1,-7.371236E-2,1.374278E-1,-1.6379333E-1,2.912132E-1,1.5948641E-1,-1.2728842E-1,-1.3654554E-1,2.6607063E-1,3.637879E-1,-3.644239E-2],"split_indices":[5,15,4,20,11,10,21,22,10,20,22,19,0,20,0,20,19,0,10,11,0,0,0,0,0,1,8,0,0,0,0,0,0,0,0,0,0,0,0],"split_type":[0,0,0,0,0,0,0,0,0,0,0,0,0,0,0,0,0,0,0,0,0,0,0,0,0,0,0,0,0,0,0,0,0,0,0,0,0,0,0],"sum_hessian":[1.6987004E2,1.1777623E2,5.2093807E1,1.06745895E2,1.1030336E1,1.6324118E1,3.576969E1,9.701048E1,9.735411E0,7.501761E0,3.5285757E0,1.4016637E1,2.3074803E0,2.7139687E1,8.630002E0,3.012778E1,6.6882706E1,3.5968418E0,6.1385684E0,2.790324E0,4.711437E0,1.2644657E0,2.2641098E0,1.2137351E1,1.8792856E0,1.412816E1,1.3011527E1,2.661051E1,3.517271E0,5.5937588E1,1.0945115E1,4.921818E0,1.2167507E0,1.1953332E0,1.5949907E0,1.0928502E1,3.1996584E0,9.206649E0,3.804878E0],"tree_param":{"num_deleted":"0","num_feature":"23","num_nodes":"39","size_leaf_vector":"1"}},{"base_weights":[2.1723143E-3,-2.8237024E-1,1.9468091E-1,-5.34287E-2,-4.3078285E-1,-1.00132145E-1,4.3548703E-1,1.9182478E-1,-4.8786837E-1,-5.771738E-1,-1.3563095E-1,-5.7808816E-1,2.848921E-1,1.0152488E0,1.6130956E-1,4.661178E-1,-1.6391817E-1,5.335344E-2,-1.7426398E-1,-2.7017242E-1,-1.8317574E-1,-4.2396775E-1,6.6443497E-1,2.7120404E-2,-1.8703043E-1,4.6755043E-1,-7.3200874E-3,-2.3190472E-1,3.8404438E-1,3.92929E-1,-4.1067111E-1,2.1282835E-2,3.997762E-1,-1.3498533E-1,4.8222575E-2,-1.7699681E-1,1.6816217E-1,3.8460484E-1,-1.1147653E-1,-6.1558098E-2,2.5497139E-1,3.454933E-2,-1.2394065E-1,-2.4268322E-2,2.3345122E-1,1.1171029E-1,-1.7086259E-1],"categories":[],"categories_nodes":[],"categories_segments":[],"categories_sizes":[],"default_left":[0,0,0,0,0,0,0,0,0,0,0,0,0,0,0,0,0,0,0,0,0,0,0,0,0,0,0,0,0,0,0,0,0,0,0,0,0,0,0,0,0,0,0,0,0,0,0],"id":6,"left_children":[1,3,5,7,9,11,13,15,17,19,21,23,25,27,29,31,-1,-1,-1,33,-1,35,37,-1,-1,-1,39,41,-1,43,45,-1,-1,-1,-1,-1,-1,-1,-1,-1,-1,-1,-1,-1,-1,-1,-1],"loss_changes":[9.037148E0,2.239205E0,7.0291634E0,3.0052295E0,1.6609182E0,8.455249E0,8.475067E0,3.9368217E0,7.313297E-1,1.0788345E-1,3.6618776E0,6.756716E-1,9.546723E0,5.999197E0,5.207116E0,4.629948E0,0E0,0E0,0E0,4.13535E-1,0E0,2.1909852E0,3.209251E0,0E0,0E0,0E0,3.8781223E0,2.910323E-1,0E0,5.1045856E0,1.638533E0,0E0,0E0,0E0,0E0,0E0,0E0,0E0,0E0,0E0,0E0,0E0,0E0,0E0,0E0,0E0,0E0],"parents":[2147483647,0,0,1,1,2,2,3,3,4,4,5,5,6,6,7,7,8,8,9,9,10,10,11,11,12,12,13,13,14,14,15,15,19,19,21,21,22,22,26,26,27,27,29,29,30,30],"right_children":[2,4,6,8,10,12,14,16,18,20,22,24,26,28,30,32,-1,-1,-1,34,-1,36,38,-1,-1,-1,40,42,-1,44,46,-1,-1,-1,-1,-1,-1,-1,-1,-1,-1,-1,-1,-1,-1,-1,-1],"split_conditions":[-1.680056E-1,8.212949E-3,9.2038944E-2,-1.4564477E-1,-1.2503257E-1,-2.1234187E-1,-4.3209866E-1,2.3234056E-1,-9.9606895E-1,-6.271938E-1,4.805921E-1,-1.3148941E-1,1.4575355E-2,-4.9563892E-2,8.709094E-1,3.4479105E-1,-1.6391817E-1,5.335344E-2,-1.7426398E-1,-1.4095562E0,-1.8317574E-1,1.6716447E0,-1.442765E-1,2.7120404E-2,-1.8703043E-1,4.6755043E-1,7.172522E-1,-8.6209035E-1,3.8404438E-1,1.6468067E-1,-6.254944E-1,2.1282835E-2,3.997762E-1,-1.3498533E-1,4.8222575E-2,-1.7699681E-1,1.6816217E-1,3.8460484E-1,-1.1147653E-1,-6.1558098E-2,2.5497139E-1,3.454933E-2,-1.2394065E-1,-2.4268322E-2,2.3345122E-1,1.1171029E-1,-1.7086259E-1],"split_indices":[18,6,3,17,19,4,7,14,16,13,15,18,18,8,4,16,0,0,0,18,0,1,0,0,0,0,16,0,0,14,2,0,0,0,0,0,0,0,0,0,0,0,0,0,0,0,0],"split_type":[0,0,0,0,0,0,0,0,0,0,0,0,0,0,0,0,0,0,0,0,0,0,0,0,0,0,0,0,0,0,0,0,0,0,0,0,0,0,0,0,0,0,0,0,0,0,0],"sum_hessian":[1.6297746E2,6.5579346E1,9.739812E1,2.6327106E1,3.9252235E1,4.405133E1,5.334679E1,1.7184452E1,9.142654E0,2.5599667E1,1.3652569E1,1.9430069E1,2.462126E1,1.626043E1,3.708636E1,1.2797861E1,4.386591E0,1.0089815E0,8.133673E0,3.4044466E0,2.219522E1,1.0381317E1,3.2712522E0,1.1711836E0,1.8258884E1,3.7860918E0,2.0835169E1,2.8705146E0,1.33899145E1,2.6619873E1,1.0466488E1,9.532296E0,3.2655656E0,2.3710573E0,1.0333894E0,9.226193E0,1.1551235E0,1.9007576E0,1.3704946E0,1.7545713E1,3.289455E0,1.1097709E0,1.7607437E0,1.2291772E1,1.4328101E1,1.538707E0,8.927781E0],"tree_param":{"num_deleted":"0","num_feature":"23","num_nodes":"47","size_leaf_vector":"1"}},{"base_weights":[-1.7092904E-2,1.5477505E-1,-3.344709E-1,2.3730162E-1,-4.4883478E-1,-1.3552929E-2,-5.948526E-1,-9.3702056E-2,5.465043E-1,7.570823E-2,-1.7420952E-1,-3.8103235E-1,5.147313E-1,-1.8880911E-2,-1.8689272E-1,1.9278091E-1,-4.549958E-1,-1.7078848E-1,6.966951E-1,-1.8040636E-1,3.468945E-1,3.2425144E-1,-1.64808E-1,2.0647669E-1,-4.0434074E-2,1.4607008E-1,-1.606578E-1,2.2545181E-1,-1.6656321E-1,3.074278E-1,6.822498E-2,2.6579788E-1,-1.1757324E-1],"categories":[],"categories_nodes":[],"categories_segments":[],"categories_sizes":[],"default_left":[0,0,0,0,0,0,0,0,0,0,0,0,0,0,0,0,0,0,0,0,0,0,0,0,0,0,0,0,0,0,0,0,0],"id":7,"left_children":[1,3,5,7,9,11,13,15,17,-1,-1,19,21,-1,-1,23,25,27,29,-1,31,-1,-1,-1,-1,-1,-1,-1,-1,-1,-1,-1,-1],"loss_changes":[9.380896E0,5.667304E0,5.0388093E0,1.0169144E1,1.4199874E0,5.646838E0,4.5923424E-1,5.1180205E0,5.641165E0,0E0,0E0,2.956426E0,7.788566E0,0E0,0E0,4.6060667E0,1.913631E0,3.8485115E0,6.322485E0,0E0,2.18535E0,0E0,0E0,0E0,0E0,0E0,0E0,0E0,0E0,0E0,0E0,0E0,0E0],"parents":[2147483647,0,0,1,1,2,2,3,3,4,4,5,5,6,6,7,7,8,8,11,11,12,12,15,15,16,16,17,17,18,18,20,20],"right_children":[2,4,6,8,10,12,14,16,18,-1,-1,20,22,-1,-1,24,26,28,30,-1,32,-1,-1,-1,-1,-1,-1,-1,-1,-1,-1,-1,-1],"split_conditions":[-2.0898627E-2,1.2386978E0,-5.031834E-1,-1.766545E-1,-6.254944E-1,3.0042055E-1,-6.686014E-1,-2.2202134E-1,-9.2076296E-1,7.570823E-2,-1.7420952E-1,4.0545434E-1,7.642277E-1,-1.8880911E-2,-1.8689272E-1,-7.6919526E-1,-1.8527296E0,-7.945807E-1,4.565294E-1,-1.8040636E-1,9.2038944E-2,3.2425144E-1,-1.64808E-1,2.0647669E-1,-4.0434074E-2,1.4607008E-1,-1.606578E-1,2.2545181E-1,-1.6656321E-1,3.074278E-1,6.822498E-2,2.6579788E-1,-1.1757324E-1],"split_indices":[21,16,0,16,2,13,10,10,19,0,0,19,13,0,0,19,16,11,16,0,3,0,0,0,0,0,0,0,0,0,0,0,0],"split_type":[0,0,0,0,0,0,0,0,0,0,0,0,0,0,0,0,0,0,0,0,0,0,0,0,0,0,0,0,0,0,0,0,0],"sum_hessian":[1.7002882E2,1.1063149E2,5.939733E1,9.785892E1,1.2772576E1,2.7077108E1,3.2320225E1,4.7599876E1,5.0259045E1,1.8771064E0,1.0895471E1,1.6133343E1,1.0943767E1,1.7855958E0,3.0534628E1,2.6808699E1,2.0791178E1,8.677796E0,4.1581245E1,1.2518299E1,3.6150432E0,7.133133E0,3.8106334E0,1.023138E1,1.6577318E1,1.2401348E0,1.9551043E1,2.271995E0,6.405802E0,2.3776104E1,1.7805143E1,1.9748166E0,1.6402266E0],"tree_param":{"num_deleted":"0","num_feature":"23","num_nodes":"33","size_leaf_vector":"1"}},{"base_weights":[4.391018E-3,-2.1229173E-1,2.7149335E-1,7.403089E-1,-2.7358657E-1,-9.307806E-2,4.597593E-1,2.9730383E-1,1.3087654E-3,-4.4443214E-1,-7.32404E-3,-5.278737E-1,2.8501043E-1,9.15053E-1,3.1606382E-1,-1.7992987E-1,-1.559733E-1,-2.0740202E-1,6.069946E-1,-1.7646526E-1,-2.7615095E-5,7.0046085E-1,-2.5299862E-1,3.052078E-1,1.06581226E-1,3.892997E-1,-1.3664147E-1,-1.08983435E-1,7.8065366E-2,2.7824864E-1,-1.0706138E-1,2.318048E-1,-9.702038E-2,2.7982128E-1,-1.0370062E-1,-1.5145344E-1,1.2686919E-1,5.4167155E-2,1.9846241E-1],"categories":[],"categories_nodes":[],"categories_segments":[],"categories_sizes":[],"default_left":[0,0,0,0,0,0,0,0,0,0,0,0,0,0,0,0,0,0,0,0,0,0,0,0,0,0,0,0,0,0,0,0,0,0,0,0,0,0,0],"id":8,"left_children":[1,3,5,7,9,11,13,-1,-1,15,17,19,21,23,25,-1,27,29,31,-1,-1,33,35,-1,-1,37,-1,-1,-1,-1,-1,-1,-1,-1,-1,-1,-1,-1,-1],"loss_changes":[9.420474E0,5.4504414E0,5.046064E0,1.0479727E0,3.871297E0,4.368032E0,2.8667927E0,0E0,0E0,2.2304678E0,4.3426743E0,3.9115882E-1,3.3896213E0,2.7109146E-1,2.3354712E0,0E0,1.777441E0,4.8473253E0,1.5884478E0,0E0,0E0,2.357502E0,1.4045424E0,0E0,0E0,1.8935671E0,0E0,0E0,0E0,0E0,0E0,0E0,0E0,0E0,0E0,0E0,0E0,0E0,0E0],"parents":[2147483647,0,0,1,1,2,2,3,3,4,4,5,5,6,6,9,9,10,10,11,11,12,12,13,13,14,14,16,16,17,17,18,18,21,21,22,22,25,25],"right_children":[2,4,6,8,10,12,14,-1,-1,16,18,20,22,24,26,-1,28,30,32,-1,-1,34,36,-1,-1,38,-1,-1,-1,-1,-1,-1,-1,-1,-1,-1,-1,-1,-1],"split_conditions":[3.0253103E-1,-1.499107E0,-6.964286E-1,-1.2766508E0,2.2455873E-1,-2.9289028E-1,-9.8553723E-1,2.9730383E-1,1.3087654E-3,8.212949E-3,8.709094E-1,-4.8739675E-1,-2.2202134E-1,2.2455873E-1,9.517571E-1,-1.7992987E-1,7.685597E-1,-8.5841215E-1,1.2916273E0,-1.7646526E-1,-2.7615095E-5,3.7973726E-1,1.1177188E0,3.052078E-1,1.06581226E-1,1.212181E0,-1.3664147E-1,-1.08983435E-1,7.8065366E-2,2.7824864E-1,-1.0706138E-1,2.318048E-1,-9.702038E-2,2.7982128E-1,-1.0370062E-1,-1.5145344E-1,1.2686919E-1,5.4167155E-2,1.9846241E-1],"split_indices":[2,17,20,15,10,11,14,0,0,6,4,21,10,10,17,0,21,1,15,0,0,18,10,0,0,11,0,0,0,0,0,0,0,0,0,0,0,0,0],"split_type":[0,0,0,0,0,0,0,0,0,0,0,0,0,0,0,0,0,0,0,0,0,0,0,0,0,0,0,0,0,0,0,0,0,0,0,0,0,0,0],"sum_hessian":[1.6077281E2,8.887749E1,7.189532E1,4.703362E0,8.4174126E1,2.4655764E1,4.7239555E1,3.2497392E0,1.4536229E0,5.08667E1,3.3307426E1,1.128362E1,1.3372145E1,1.0044845E1,3.719471E1,3.2361134E1,1.8505566E1,2.5624235E1,7.6831923E0,1.0023119E1,1.2605008E0,7.3751254E0,5.9970193E0,7.801599E0,2.2432456E0,3.4422657E1,2.7720537E0,1.2437556E1,6.0680094E0,2.376275E0,2.3247961E1,6.665661E0,1.0175314E0,6.1238194E0,1.251306E0,4.553434E0,1.4435856E0,2.0424955E1,1.3997702E1],"tree_param":{"num_deleted":"0","num_feature":"23","num_nodes":"39","size_leaf_vector":"1"}},{"base_weights":[5.9823316E-2,-5.3830612E-2,2.9782003E-1,9.3586944E-2,-2.5345215E-1,4.0622783E-1,-2.7531272E-1,-4.982776E-1,3.2266778E-1,3.2129914E-1,-4.202096E-1,-8.4843285E-2,5.809246E-1,2.1964908E-1,-1.6758853E-1,1.3239293E-1,-1.8014187E-1,1.08131975E-1,8.4858E-1,9.352977E-1,-1.5460081E-1,-4.800277E-1,2.4399763E-1,6.514544E-1,-1.6986795E-1,-1.2488386E-1,6.53384E-1,-3.5354707E-2,2.702513E-1,3.4544483E-1,-1.3426241E-1,3.5672477E-1,-1.3391152E-3,2.4879577E-3,-1.6652718E-1,-1.1009237E-1,2.1969597E-1,2.4448669E-2,2.3016703E-1,2.3862918E-1,-6.5179365E-3],"categories":[],"categories_nodes":[],"categories_segments":[],"categories_sizes":[],"default_left":[0,0,0,0,0,0,0,0,0,0,0,0,0,0,0,0,0,0,0,0,0,0,0,0,0,0,0,0,0,0,0,0,0,0,0,0,0,0,0,0,0],"id":9,"left_children":[1,3,5,7,9,11,13,15,17,19,21,23,25,-1,-1,-1,-1,27,29,31,-1,33,35,37,-1,-1,39,-1,-1,-1,-1,-1,-1,-1,-1,-1,-1,-1,-1,-1,-1],"loss_changes":[4.50556E0,3.3543272E0,3.45434E0,9.086674E0,4.768757E0,3.9649863E0,3.0216134E0,2.0666728E0,5.331751E0,6.358308E0,1.6232467E0,4.9232287E0,2.713853E0,0E0,0E0,0E0,0E0,6.427494E0,5.925913E0,1.6635194E0,0E0,1.2916441E0,1.4009439E0,3.0333567E-1,0E0,0E0,3.07584E0,0E0,0E0,0E0,0E0,0E0,0E0,0E0,0E0,0E0,0E0,0E0,0E0,0E0,0E0],"parents":[2147483647,0,0,1,1,2,2,3,3,4,4,5,5,6,6,7,7,8,8,9,9,10,10,11,11,12,12,17,17,18,18,19,19,21,21,22,22,23,23,26,26],"right_children":[2,4,6,8,10,12,14,16,18,20,22,24,26,-1,-1,-1,-1,28,30,32,-1,34,36,38,-1,-1,40,-1,-1,-1,-1,-1,-1,-1,-1,-1,-1,-1,-1,-1,-1],"split_conditions":[6.207476E-1,3.0042055E-1,9.1209763E-1,-9.9606895E-1,-6.254944E-1,-9.3891144E-2,-2.1234187E-1,-1.774718E0,6.250218E-1,6.055139E-1,1.4605929E0,-7.487277E-1,-5.86379E-1,2.1964908E-1,-1.6758853E-1,1.3239293E-1,-1.8014187E-1,9.324442E-1,6.546639E-2,-1.736187E-1,-1.5460081E-1,-1.2428576E0,5.7353735E-1,5.8640456E-1,-1.6986795E-1,-1.2488386E-1,2.8418725E0,-3.5354707E-2,2.702513E-1,3.4544483E-1,-1.3426241E-1,3.5672477E-1,-1.3391152E-3,2.4879577E-3,-1.6652718E-1,-1.1009237E-1,2.1969597E-1,2.4448669E-2,2.3016703E-1,2.3862918E-1,-6.5179365E-3],"split_indices":[5,13,21,16,2,15,4,18,21,16,15,14,8,0,0,0,0,0,5,14,0,15,0,6,0,0,5,0,0,0,0,0,0,0,0,0,0,0,0,0,0],"split_type":[0,0,0,0,0,0,0,0,0,0,0,0,0,0,0,0,0,0,0,0,0,0,0,0,0,0,0,0,0,0,0,0,0,0,0,0,0,0,0,0,0],"sum_hessian":[1.6497598E2,1.1217925E2,5.2796722E1,6.483255E1,4.7346703E1,4.464362E1,8.153104E0,1.77633E1,4.7069252E1,1.0439356E1,3.690735E1,1.1849399E1,3.279422E1,1.4417927E0,6.7113113E0,1.4170046E0,1.6346294E1,3.4287807E1,1.27814455E1,5.9527564E0,4.4865994E0,3.4112488E1,2.7948587E0,4.5447297E0,7.304669E0,1.9000638E0,3.0894156E1,2.7344028E1,6.94378E0,1.0450714E1,2.3307316E0,4.478126E0,1.4746306E0,4.663521E0,2.9448967E1,1.351903E0,1.4429557E0,1.0549428E0,3.4897869E0,2.5376575E1,5.5175805E0],"tree_param":{"num_deleted":"0","num_feature":"23","num_nodes":"41","size_leaf_vector":"1"}},{"base_weights":[-5.318799E-2,1.827329E-1,-2.1888365E-1,-2.7773795E-1,3.5604984E-1,-1.7652816E-1,-9.680682E-2,-5.364277E-1,5.408746E-1,-1.14216596E-1,5.9947914E-1,3.377705E-1,-1.8026292E-1,-1.7809182E-1,1.5527672E-3,2.5086114E-1,-9.687805E-2,-4.5028597E-1,7.75034E-1,7.514335E-1,-1.4964907E-1,7.935928E-1,-1.5212828E-1,-3.9021522E-1,1.16861135E-1,-1.7555162E-1,8.77024E-2,-1.138577E-1,3.8845983E-1,3.0577305E-1,1.0198426E-1,3.140172E-1,-1.0424764E-1,2.3465432E-1,-1.3749522E-1,1.9981878E-1,-8.7383494E-2],"categories":[],"categories_nodes":[],"categories_segments":[],"categories_sizes":[],"default_left":[0,0,0,0,0,0,0,0,0,0,0,0,0,0,0,0,0,0,0,0,0,0,0,0,0,0,0,0,0,0,0,0,0,0,0,0,0],"id":10,"left_children":[1,3,5,7,9,-1,11,13,15,17,19,21,23,-1,-1,-1,-1,25,27,29,-1,31,-1,33,35,-1,-1,-1,-1,-1,-1,-1,-1,-1,-1,-1,-1],"loss_changes":[6.43375E0,5.5278225E0,4.297992E0,4.3484697E0,5.77642E0,0E0,2.7360547E0,4.6985865E-1,1.5710143E0,5.6824965E0,5.8847227E0,5.1126757E0,3.94633E0,0E0,0E0,0E0,0E0,1.5318258E0,3.6497686E0,2.8934994E0,0E0,2.7711086E0,0E0,3.3022995E0,6.169799E0,0E0,0E0,0E0,0E0,0E0,0E0,0E0,0E0,0E0,0E0,0E0,0E0],"parents":[2147483647,0,0,1,1,2,2,3,3,4,4,6,6,7,7,8,8,9,9,10,10,11,11,12,12,17,17,18,18,19,19,21,21,23,23,24,24],"right_children":[2,4,6,8,10,-1,12,14,16,18,20,22,24,-1,-1,-1,-1,26,28,30,-1,32,-1,34,36,-1,-1,-1,-1,-1,-1,-1,-1,-1,-1,-1,-1],"split_conditions":[-1.394084E-1,1.5591195E-1,-9.348456E-1,1.1254008E0,-6.943457E-1,-1.7652816E-1,-1.2223468E0,-5.118695E-1,-8.10357E-1,5.7353735E-1,8.4127945E-1,6.250218E-1,3.296705E-1,-1.7809182E-1,1.5527672E-3,2.5086114E-1,-9.687805E-2,6.7206633E-1,-8.810487E-1,1.1998384E-1,-1.4964907E-1,9.487713E-1,-1.5212828E-1,-8.6181325E-1,2.2015585E-1,-1.7555162E-1,8.77024E-2,-1.138577E-1,3.8845983E-1,3.0577305E-1,1.0198426E-1,3.140172E-1,-1.0424764E-1,2.3465432E-1,-1.3749522E-1,1.9981878E-1,-8.7383494E-2],"split_indices":[16,22,18,19,17,0,14,16,21,0,14,21,19,0,0,0,0,7,9,7,0,1,0,18,17,0,0,0,0,0,0,0,0,0,0,0,0],"split_type":[0,0,0,0,0,0,0,0,0,0,0,0,0,0,0,0,0,0,0,0,0,0,0,0,0,0,0,0,0,0,0,0,0,0,0,0,0],"sum_hessian":[1.6256047E2,6.7025444E1,9.553503E1,1.8164162E1,4.886128E1,2.2774204E1,7.276082E1,1.4064386E1,4.0997744E0,1.6846786E1,3.2014496E1,1.1230976E1,6.1529846E1,1.2633756E1,1.4306307E0,3.0790222E0,1.0207523E0,1.2584451E1,4.262335E0,2.8400965E1,3.6135304E0,7.33453E0,3.8964467E0,3.587015E1,2.565969E1,1.0829478E1,1.7549733E0,1.4070811E0,2.8552537E0,1.6309298E1,1.2091666E1,6.070567E0,1.2639626E0,1.3935974E0,3.4476555E1,1.0669982E1,1.498971E1],"tree_param":{"num_deleted":"0","num_feature":"23","num_nodes":"37","size_leaf_vector":"1"}},{"base_weights":[-5.213818E-2,7.813152E-2,-3.7929457E-1,-4.5727944E-1,1.7951134E-1,2.4094634E-1,-4.926863E-1,-5.26866E-1,-2.0044312E-1,2.6421455E-1,-1.6868165E-1,-3.044243E-1,2.4533221E-1,2.7266556E-2,-5.133995E-1,-1.7551677E-1,5.5300775E-3,-1.4933163E-1,1.5522985E-1,9.271162E-2,6.619228E-1,4.0717807E-2,-1.385431E-1,6.108464E-3,-5.351938E-1,-2.8325895E-2,1.4773116E-1,-1.349408E-1,2.2493431E-1,-1.6730264E-1,-6.5210224E-3],"categories":[],"categories_nodes":[],"categories_segments":[],"categories_sizes":[],"default_left":[0,0,0,0,0,0,0,0,0,0,0,0,0,0,0,0,0,0,0,0,0,0,0,0,0,0,0,0,0,0,0],"id":11,"left_children":[1,3,5,7,9,11,13,15,17,19,-1,21,-1,-1,23,-1,-1,-1,-1,25,27,-1,-1,-1,29,-1,-1,-1,-1,-1,-1],"loss_changes":[7.1330585E0,6.597661E0,3.4690852E0,2.4097824E-1,6.5350237E0,2.7765012E0,5.374613E-1,4.7545767E-1,1.4844646E0,6.207478E0,0E0,3.992531E-1,0E0,0E0,4.6879196E-1,0E0,0E0,0E0,0E0,4.9369035E0,3.0261097E0,0E0,0E0,0E0,4.248438E-1,0E0,0E0,0E0,0E0,0E0,0E0],"parents":[2147483647,0,0,1,1,2,2,3,3,4,4,5,5,6,6,7,7,8,8,9,9,11,11,14,14,19,19,20,20,24,24],"right_children":[2,4,6,8,10,12,14,16,18,20,-1,22,-1,-1,24,-1,-1,-1,-1,26,28,-1,-1,-1,30,-1,-1,-1,-1,-1,-1],"split_conditions":[6.4276E-1,-1.120857E0,-7.539675E-1,-6.6837436E-1,1.1645962E0,5.7353735E-1,-1.2617903E0,1.2913512E0,3.853363E-2,9.57606E-3,-1.6868165E-1,2.2455873E-1,2.4533221E-1,2.7266556E-2,-1.0910009E0,-1.7551677E-1,5.5300775E-3,-1.4933163E-1,1.5522985E-1,2.1238951E-1,-8.810487E-1,4.0717807E-2,-1.385431E-1,6.108464E-3,1.7930986E0,-2.8325895E-2,1.4773116E-1,-1.349408E-1,2.2493431E-1,-1.6730264E-1,-6.5210224E-3],"split_indices":[16,14,4,15,6,0,19,0,9,16,0,10,0,0,13,0,0,0,0,20,9,0,0,0,17,0,0,0,0,0,0],"split_type":[0,0,0,0,0,0,0,0,0,0,0,0,0,0,0,0,0,0,0,0,0,0,0,0,0,0,0,0,0,0,0],"sum_hessian":[1.6567441E2,1.19036644E2,4.6637768E1,1.8392248E1,1.00644394E2,7.0345597E0,3.9603207E1,1.3644166E1,4.7480826E0,9.09076E1,9.736798E0,3.8586159E0,3.1759439E0,1.2413508E0,3.836186E1,1.2262686E1,1.3814805E0,3.5742915E0,1.1737912E0,6.4378784E1,2.6528818E1,1.0525758E0,2.80604E0,1.5075045E0,3.685435E1,4.4370533E1,2.0008247E1,1.6412607E0,2.4887556E1,3.5225872E1,1.6284797E0],"tree_param":{"num_deleted":"0","num_feature":"23","num_nodes":"31","size_leaf_vector":"1"}},{"base_weights":[-3.3593396E-4,-1.9915745E-1,2.3351294E-1,2.2347203E-1,-3.658033E-1,3.089872E-1,-1.624629E-1,4.8907936E-1,-2.3473594E-1,-4.82274E-1,2.7049783E-1,2.4350326E-1,8.0344146E-1,6.802792E-1,-1.2664026E-1,-1.5667975E-1,1.8865807E-1,-5.2925926E-1,1.284837E-3,9.009633E-1,-1.8015723E-1,3.0221194E-1,-4.545671E-1,2.629938E-1,8.971041E-2,2.598143E-1,-1.1562103E-1,-1.6461249E-1,1.9710096E-4,2.7291903E-1,-1.4096339E-1,3.5982072E-1,5.0257884E-2,-1.4953333E-1,1.7151901E-1,1.05828814E-1,-1.3983901E-1,-1.5708527E-2,-1.7554307E-1],"categories":[],"categories_nodes":[],"categories_segments":[],"categories_sizes":[],"default_left":[0,0,0,0,0,0,0,0,0,0,0,0,0,0,0,0,0,0,0,0,0,0,0,0,0,0,0,0,0,0,0,0,0,0,0,0,0,0,0],"id":12,"left_children":[1,3,5,7,9,11,-1,13,15,17,19,21,23,25,-1,-1,-1,27,29,31,33,35,37,-1,-1,-1,-1,-1,-1,-1,-1,-1,-1,-1,-1,-1,-1,-1,-1],"loss_changes":[7.393681E0,6.1350136E0,4.4420147E0,3.1484652E0,4.726877E0,1.981113E0,0E0,3.0928733E0,2.7674918E0,1.199954E0,3.0708053E0,2.6291466E0,1.2104988E-2,3.0447602E0,0E0,0E0,0E0,4.9622154E-1,2.8553114E0,7.695513E-1,1.9130467E0,2.3660688E0,2.3804879E-1,0E0,0E0,0E0,0E0,0E0,0E0,0E0,0E0,0E0,0E0,0E0,0E0,0E0,0E0,0E0,0E0],"parents":[2147483647,0,0,1,1,2,2,3,3,4,4,5,5,7,7,8,8,9,9,10,10,11,11,12,12,13,13,17,17,18,18,19,19,20,20,21,21,22,22],"right_children":[2,4,6,8,10,12,-1,14,16,18,20,22,24,26,-1,-1,-1,28,30,32,34,36,38,-1,-1,-1,-1,-1,-1,-1,-1,-1,-1,-1,-1,-1,-1,-1,-1],"split_conditions":[3.0253103E-1,-9.7251254E-1,1.2913512E0,3.4479105E-1,9.5811594E-1,3.1713266E0,-1.624629E-1,5.586059E-1,1.3427112E0,1.4249283E0,-6.4723784E-1,2.3283138E0,1.2014517E0,5.7353735E-1,-1.2664026E-1,-1.5667975E-1,1.8865807E-1,1.7885177E0,1.4994205E0,5.278002E-1,1.9541607E0,9.324442E-1,1.2305565E0,2.629938E-1,8.971041E-2,2.598143E-1,-1.1562103E-1,-1.6461249E-1,1.9710096E-4,2.7291903E-1,-1.4096339E-1,3.5982072E-1,5.0257884E-2,-1.4953333E-1,1.7151901E-1,1.05828814E-1,-1.3983901E-1,-1.5708527E-2,-1.7554307E-1],"split_indices":[2,15,0,16,9,8,0,20,21,16,14,7,16,0,0,0,0,14,16,12,4,0,2,0,0,0,0,0,0,0,0,0,0,0,0,0,0,0,0],"split_type":[0,0,0,0,0,0,0,0,0,0,0,0,0,0,0,0,0,0,0,0,0,0,0,0,0,0,0,0,0,0,0,0,0,0,0,0,0,0,0],"sum_hessian":[1.5702351E2,8.494795E1,7.207557E1,2.3926672E1,6.1021282E1,6.622771E1,5.84786E0,1.5104019E1,8.822653E0,5.1784534E1,9.236749E0,5.98004E1,6.4273047E0,1.2693896E1,2.4101224E0,6.9154367E0,1.9072156E0,4.7112328E1,4.6722054E0,3.433733E0,5.8030157E0,5.5684345E1,4.1160564E0,4.968284E0,1.4590206E0,1.0969107E1,1.7247897E0,4.5410217E1,1.7021095E0,1.2777559E0,3.3944497E0,1.9890584E0,1.4446746E0,4.313929E0,1.4890869E0,5.2754402E1,2.9299405E0,1.3521453E0,2.7639112E0],"tree_param":{"num_deleted":"0","num_feature":"23","num_nodes":"39","size_leaf_vector":"1"}},{"base_weights":[3.2018334E-2,-3.964783E-1,8.5050285E-2,9.1196924E-2,-4.907402E-1,-3.9328402E-1,1.3757661E-1,-5.4360527E-1,1.89049E-2,1.6248307E-1,-5.1995844E-1,4.149929E-1,9.8017175E-3,-1.7764872E-1,-4.1381776E-4,-1.7271918E-1,1.7591825E-2,5.6357914E-1,-3.96592E-1,-7.24586E-2,3.1305924E-1,1.0463992E-1,3.042841E-1,-1.4951849E-1,2.3755148E-2,2.115728E-2,-1.1006933E-1,2.690491E-1,2.754269E-2],"categories":[],"categories_nodes":[],"categories_segments":[],"categories_sizes":[],"default_left":[0,0,0,0,0,0,0,0,0,0,0,0,0,0,0,0,0,0,0,0,0,0,0,0,0,0,0,0,0],"id":13,"left_children":[1,3,5,-1,7,9,11,13,-1,-1,15,17,19,-1,-1,-1,-1,21,23,25,27,-1,-1,-1,-1,-1,-1,-1,-1],"loss_changes":[3.587381E0,1.2980268E0,3.571224E0,0E0,4.9439907E-1,1.9526167E0,4.4932146E0,3.7969923E-1,0E0,0E0,4.5121527E-1,5.045299E0,2.2151718E0,0E0,0E0,0E0,0E0,2.957818E0,3.6759543E-1,2.9706578E0,2.364125E0,0E0,0E0,0E0,0E0,0E0,0E0,0E0,0E0],"parents":[2147483647,0,0,1,1,2,2,4,4,5,5,6,6,7,7,10,10,11,11,12,12,17,17,18,18,19,19,20,20],"right_children":[2,4,6,-1,8,10,12,14,-1,-1,16,18,20,-1,-1,-1,-1,22,24,26,28,-1,-1,-1,-1,-1,-1,-1,-1],"split_conditions":[-1.0344387E0,-8.6209035E-1,-7.539675E-1,9.1196924E-2,1.7733248E0,-9.965468E-1,-2.1234187E-1,8.5231656E-1,1.89049E-2,1.6248307E-1,2.1484828E0,1.4638779E0,1.1226616E0,-1.7764872E-1,-4.1381776E-4,-1.7271918E-1,1.7591825E-2,5.8595645E-1,-4.9563892E-2,2.5388664E-1,-6.981001E-1,1.0463992E-1,3.042841E-1,-1.4951849E-1,2.3755148E-2,2.115728E-2,-1.1006933E-1,2.690491E-1,2.754269E-2],"split_indices":[19,0,4,0,21,19,4,15,0,0,19,17,15,0,0,0,0,17,8,19,16,0,0,0,0,0,0,0,0],"split_type":[0,0,0,0,0,0,0,0,0,0,0,0,0,0,0,0,0,0,0,0,0,0,0,0,0,0,0,0,0],"sum_hessian":[1.553835E2,1.6399532E1,1.3898396E2,1.6812295E0,1.4718302E1,1.3109957E1,1.2587401E2,1.3452386E1,1.2659165E0,1.173509E0,1.1936448E1,3.8984856E1,8.6889145E1,1.2262193E1,1.1901932E0,1.0891546E1,1.0449015E0,3.3210255E1,5.7746043E0,6.894775E1,1.79414E1,2.3693253E1,9.517001E0,4.7176213E0,1.0569829E0,4.6922264E1,2.2025486E1,4.0917673E0,1.3849632E1],"tree_param":{"num_deleted":"0","num_feature":"23","num_nodes":"29","size_leaf_vector":"1"}},{"base_weights":[-2.1815414E-2,-2.5319874E-1,1.1539174E-1,-3.3285785E-1,4.0803182E-1,2.7812868E-1,-3.1666186E-1,-7.140862E-2,-4.4480917E-1,-1.17382E-1,2.545882E-1,-1.03259444E-1,5.1375985E-1,5.850229E-1,-4.5874032E-1,-1.5264836E-1,1.8340318E-1,8.37672E-2,-4.8840103E-1,2.4646108E-1,-5.180026E-1,6.49448E-1,-1.6832721E-1,2.4919654E-1,4.7210837E-3,-1.8088634E-1,-4.1691665E-2,-1.3703994E-1,1.4537694E-1,-3.830399E-2,-1.6591944E-1,1.967911E-1,-7.797107E-2,4.6286946E-3,-1.7344728E-1,2.2775972E-1,-1.3758717E-1,-1.3430737E-1,8.6997785E-2],"categories":[],"categories_nodes":[],"categories_segments":[],"categories_sizes":[],"default_left":[0,0,0,0,0,0,0,0,0,0,0,0,0,0,0,0,0,0,0,0,0,0,0,0,0,0,0,0,0,0,0,0,0,0,0,0,0,0,0],"id":14,"left_children":[1,3,5,7,9,11,13,15,17,-1,-1,19,21,23,25,-1,27,-1,29,31,33,35,-1,-1,-1,-1,37,-1,-1,-1,-1,-1,-1,-1,-1,-1,-1,-1,-1],"loss_changes":[5.006154E0,3.2260973E0,7.055718E0,1.5169449E0,2.711753E0,6.569874E0,3.8017788E0,1.9942683E0,1.2996464E0,0E0,0E0,4.2651477E0,6.9260464E0,5.733781E-1,1.4416103E0,0E0,2.4411294E0,0E0,7.487545E-1,3.5201094E0,4.3801093E-1,5.262682E0,0E0,0E0,0E0,0E0,1.1183205E0,0E0,0E0,0E0,0E0,0E0,0E0,0E0,0E0,0E0,0E0,0E0,0E0],"parents":[2147483647,0,0,1,1,2,2,3,3,4,4,5,5,6,6,7,7,8,8,11,11,12,12,13,13,14,14,16,16,18,18,19,19,20,20,21,21,26,26],"right_children":[2,4,6,8,10,12,14,16,18,-1,-1,20,22,24,26,-1,28,-1,30,32,34,36,-1,-1,-1,-1,38,-1,-1,-1,-1,-1,-1,-1,-1,-1,-1,-1,-1],"split_conditions":[-1.680056E-1,9.1209763E-1,6.382998E-1,-9.8553723E-1,9.57606E-3,-4.442582E-1,-8.5841215E-1,-1.442765E-1,-1.3312839E0,-1.17382E-1,2.545882E-1,-1.1546869E0,1.1830934E0,1.0370287E0,9.324442E-1,-1.5264836E-1,-7.3858804E-1,8.37672E-2,-8.6209035E-1,-2.0898627E-2,-1.5175146E0,1.5173378E0,-1.6832721E-1,2.4919654E-1,4.7210837E-3,-1.8088634E-1,5.25802E-1,-1.3703994E-1,1.4537694E-1,-3.830399E-2,-1.6591944E-1,1.967911E-1,-7.797107E-2,4.6286946E-3,-1.7344728E-1,2.2775972E-1,-1.3758717E-1,-1.3430737E-1,8.6997785E-2],"split_indices":[18,21,14,14,16,14,1,0,16,0,0,14,18,18,0,0,21,0,0,21,16,12,0,0,0,0,18,0,0,0,0,0,0,0,0,0,0,0,0],"split_type":[0,0,0,0,0,0,0,0,0,0,0,0,0,0,0,0,0,0,0,0,0,0,0,0,0,0,0,0,0,0,0,0,0,0,0,0,0,0,0],"sum_hessian":[1.5576651E2,5.766912E1,9.80974E1,5.1911858E1,5.7572656E0,7.1516365E1,2.6581032E1,1.605504E1,3.5856815E1,2.0856085E0,3.671657E0,2.7525646E1,4.399072E1,3.1938734E0,2.3387157E1,5.542944E0,1.0512097E1,1.7292732E0,3.4127544E1,1.5153573E1,1.2372073E1,3.9411255E1,4.5794625E0,1.9104474E0,1.283426E0,1.7046698E1,6.3404603E0,3.197921E0,7.314176E0,5.6399684E0,2.8487574E1,8.214699E0,6.938874E0,1.3291533E0,1.104292E1,3.6145958E1,3.265296E0,2.6935983E0,3.646862E0],"tree_param":{"num_deleted":"0","num_feature":"23","num_nodes":"39","size_leaf_vector":"1"}},{"base_weights":[-3.4779187E-2,6.287407E-1,-8.501421E-2,-3.7328888E-2,7.7501386E-1,1.5977174E-1,-2.160219E-1,2.6623085E-1,7.964595E-3,3.445338E-1,-3.8817975E-1,3.4685713E-1,-3.3818296E-1,4.9832615E-1,-1.6277985E-1,-1.6786721E-1,6.956406E-2,6.45455E-1,-8.1726186E-2,8.518371E-2,-4.1422978E-1,4.384428E-2,2.568152E-1,-1.3532601E-1,2.0702524E-1,-7.4050754E-2,2.762861E-1,1.3319966E-1,-1.6432145E-1,-8.132923E-2,2.2190823E-1,-1.3910578E-1,4.8961744E-2],"categories":[],"categories_nodes":[],"categories_segments":[],"categories_sizes":[],"default_left":[0,0,0,0,0,0,0,0,0,0,0,0,0,0,0,0,0,0,0,0,0,0,0,0,0,0,0,0,0,0,0,0,0],"id":15,"left_children":[1,3,5,-1,7,9,11,-1,-1,13,15,17,19,21,-1,-1,23,25,27,29,31,-1,-1,-1,-1,-1,-1,-1,-1,-1,-1,-1,-1],"loss_changes":[5.2396936E0,1.3160024E0,4.701293E0,0E0,7.6807404E-1,5.328071E0,6.6646047E0,0E0,0E0,5.5775456E0,1.0907273E0,2.2888954E0,2.570489E0,4.1171217E0,0E0,0E0,1.7786317E0,2.7865605E0,2.2184887E0,3.189996E0,1.986866E0,0E0,0E0,0E0,0E0,0E0,0E0,0E0,0E0,0E0,0E0,0E0,0E0],"parents":[2147483647,0,0,1,1,2,2,4,4,5,5,6,6,9,9,10,10,11,11,12,12,13,13,16,16,17,17,18,18,19,19,20,20],"right_children":[2,4,6,-1,8,10,12,-1,-1,14,16,18,20,22,-1,-1,24,26,28,30,32,-1,-1,-1,-1,-1,-1,-1,-1,-1,-1,-1,-1],"split_conditions":[-9.097387E-1,-4.3209866E-1,-4.3209866E-1,-3.7328888E-2,6.546639E-2,6.2253654E-1,-5.6997865E-1,2.6623085E-1,7.964595E-3,1.1632928E0,2.661705E-1,-2.1234187E-1,-5.86379E-1,-1.3553876E-1,-1.6277985E-1,-1.6786721E-1,7.104905E-1,-6.792323E-1,-2.9289028E-1,3.664761E-1,2.0300257E0,4.384428E-2,2.568152E-1,-1.3532601E-1,2.0702524E-1,-7.4050754E-2,2.762861E-1,1.3319966E-1,-1.6432145E-1,-8.132923E-2,2.2190823E-1,-1.3910578E-1,4.8961744E-2],"split_indices":[22,7,7,0,5,17,6,0,0,19,14,4,8,1,0,0,11,18,11,17,20,0,0,0,0,0,0,0,0,0,0,0,0],"split_type":[0,0,0,0,0,0,0,0,0,0,0,0,0,0,0,0,0,0,0,0,0,0,0,0,0,0,0,0,0,0,0,0,0],"sum_hessian":[1.5459378E2,1.0070005E1,1.4452377E2,1.6619334E0,8.4080715E0,5.0306763E1,9.421701E1,7.1486444E0,1.2594274E0,3.7898964E1,1.24078E1,1.6473423E1,7.774359E1,3.2673073E1,5.2258916E0,8.865983E0,3.541817E0,9.410809E0,7.0626154E0,1.1819895E1,6.59237E1,1.7173937E1,1.5499137E1,2.0743623E0,1.4674547E0,2.2446923E0,7.166116E0,3.3408818E0,3.7217336E0,8.0329685E0,3.786926E0,6.0904354E1,5.0193415E0],"tree_param":{"num_deleted":"0","num_feature":"23","num_nodes":"33","size_leaf_vector":"1"}},{"base_weights":[-1.4890096E-3,-2.4626534E-1,1.19909324E-1,3.2353362E-1,-4.0807155E-1,7.3026145E-1,3.6436096E-2,-1.4993003E-1,6.707531E-1,-4.4467795E-1,9.5626704E-2,2.4157394E-1,5.7633244E-2,-2.6857957E-1,1.8732801E-1,2.3197526E-1,2.1458413E-2,-5.102782E-1,-1.6419248E-1,3.9174023E-1,-3.9759663E-1,-1.666507E-1,2.718545E-1,3.578283E-2,-1.6196832E-1,1.1639241E-1,-1.5292989E-1,-1.04664944E-1,2.2099738E-1,3.8857904E-4,-1.4691514E-1,-7.1314625E-3,1.441347E-1],"categories":[],"categories_nodes":[],"categories_segments":[],"categories_sizes":[],"default_left":[0,0,0,0,0,0,0,0,0,0,0,0,0,0,0,0,0,0,0,0,0,0,0,0,0,0,0,0,0,0,0,0,0],"id":16,"left_children":[1,3,5,7,9,11,13,-1,15,17,-1,-1,-1,19,21,-1,-1,23,25,27,29,-1,31,-1,-1,-1,-1,-1,-1,-1,-1,-1,-1],"loss_changes":[4.424547E0,4.6830626E0,5.044835E0,3.61553E0,1.1763949E0,3.2644272E-1,4.1289134E0,0E0,4.6663427E-1,6.051092E-1,0E0,0E0,0E0,2.6894567E0,3.910643E0,0E0,0E0,6.213012E-1,1.833277E0,1.6274828E0,9.3310547E-1,0E0,3.3679867E0,0E0,0E0,0E0,0E0,0E0,0E0,0E0,0E0,0E0,0E0],"parents":[2147483647,0,0,1,1,2,2,3,3,4,4,5,5,6,6,8,8,9,9,13,13,14,14,17,17,18,18,19,19,20,20,22,22],"right_children":[2,4,6,8,10,12,14,-1,16,18,-1,-1,-1,20,22,-1,-1,24,26,28,30,-1,32,-1,-1,-1,-1,-1,-1,-1,-1,-1,-1],"split_conditions":[-2.9289028E-1,-1.2766508E0,-9.586549E-1,-1.2617903E0,1.2241489E0,8.5231656E-1,9.2038944E-2,-1.4993003E-1,3.4479105E-1,7.6654375E-1,9.5626704E-2,2.4157394E-1,5.7633244E-2,-1.4095562E0,-8.449791E-1,2.3197526E-1,2.1458413E-2,-1.5175146E0,-6.1762756E-1,-2.2202134E-1,-6.254944E-1,-1.666507E-1,-1.442765E-1,3.578283E-2,-1.6196832E-1,1.1639241E-1,-1.5292989E-1,-1.04664944E-1,2.2099738E-1,3.8857904E-4,-1.4691514E-1,-7.1314625E-3,1.441347E-1],"split_indices":[11,15,19,19,7,15,3,0,16,2,0,0,0,18,19,0,0,16,19,10,2,0,0,0,0,0,0,0,0,0,0,0,0],"split_type":[0,0,0,0,0,0,0,0,0,0,0,0,0,0,0,0,0,0,0,0,0,0,0,0,0,0,0,0,0,0,0,0,0],"sum_hessian":[1.4690352E2,4.8362103E1,9.854143E1,1.0474996E1,3.7887108E1,1.0923184E1,8.761824E1,2.9769468E0,7.498049E0,3.644001E1,1.4470948E0,9.151683E0,1.771502E0,2.8740904E1,5.8877335E1,6.1548424E0,1.3432064E0,2.8868858E1,7.5711536E0,4.364858E0,2.4376045E1,5.445919E0,5.3431416E1,1.161042E0,2.7707815E1,2.8671873E0,4.703966E0,1.3832285E0,2.9816296E0,4.7582483E0,1.9617798E1,2.2470966E1,3.096045E1],"tree_param":{"num_deleted":"0","num_feature":"23","num_nodes":"33","size_leaf_vector":"1"}},{"base_weights":[5.1370773E-2,1.7149256E-1,-1.206435E-1,4.1866E-2,3.7669837E-1,-3.0544835E-1,1.732579E-1,4.9350065E-1,-1.469865E-1,7.402005E-1,5.6297354E-2,-1.18326426E-1,-1.6997324E-1,-1.5162405E-1,3.594221E-1,-1.411999E-1,7.724078E-1,-4.2518574E-1,2.9549465E-1,9.6572745E-1,-4.834797E-2,-1.619508E-1,3.408355E-1,-3.4340137E-1,4.350716E-1,-1.9975303E-1,4.9961498E-1,2.6672572E-1,-1.6553357E-2,-1.545072E-1,1.989294E-1,-2.9227868E-2,2.5147817E-1,3.293463E-1,7.603412E-2,1.0351772E-1,-1.1825209E-1,-1.418161E-1,1.7600027E-1,-1.7068289E-1,8.681883E-2,1.5604547E-2,2.4228713E-1,-1.4655288E-1,9.716048E-2,1.7851473E-1,-4.784834E-2],"categories":[],"categories_nodes":[],"categories_segments":[],"categories_sizes":[],"default_left":[0,0,0,0,0,0,0,0,0,0,0,0,0,0,0,0,0,0,0,0,0,0,0,0,0,0,0,0,0,0,0,0,0,0,0,0,0,0,0,0,0,0,0,0,0,0,0],"id":17,"left_children":[1,3,5,7,9,11,13,15,17,19,21,23,-1,-1,25,-1,27,29,31,33,35,-1,37,39,41,43,45,-1,-1,-1,-1,-1,-1,-1,-1,-1,-1,-1,-1,-1,-1,-1,-1,-1,-1,-1,-1],"loss_changes":[3.3731744E0,2.5364413E0,3.7083387E0,5.183893E0,4.2699065E0,1.9696345E0,3.5449023E0,5.176973E0,5.4222875E0,3.1163864E0,3.7051609E0,3.3312502E0,0E0,0E0,1.7831936E0,0E0,1.426219E0,2.9644885E0,3.7497559E0,9.8911667E-1,7.878478E-1,0E0,3.210257E0,2.8362043E0,1.0749607E0,9.1707695E-1,1.1928515E0,0E0,0E0,0E0,0E0,0E0,0E0,0E0,0E0,0E0,0E0,0E0,0E0,0E0,0E0,0E0,0E0,0E0,0E0,0E0,0E0],"parents":[2147483647,0,0,1,1,2,2,3,3,4,4,5,5,6,6,7,7,8,8,9,9,10,10,11,11,14,14,16,16,17,17,18,18,19,19,20,20,22,22,23,23,24,24,25,25,26,26],"right_children":[2,4,6,8,10,12,14,16,18,20,22,24,-1,-1,26,-1,28,30,32,34,36,-1,38,40,42,44,46,-1,-1,-1,-1,-1,-1,-1,-1,-1,-1,-1,-1,-1,-1,-1,-1,-1,-1,-1,-1],"split_conditions":[3.0042055E-1,3.7973726E-1,6.8335086E-1,-1.4095562E0,-3.3044305E-1,3.0670488E-1,-4.9697545E-1,-1.344237E0,2.2589794E-1,8.7859696E-1,-1.442765E-1,7.104905E-1,-1.6997324E-1,-1.5162405E-1,-1.2269752E0,-1.411999E-1,2.2455873E-1,1.6502581E0,8.709094E-1,2.5388664E-1,-6.254944E-1,-1.619508E-1,6.319086E-2,-2.1940837E-2,9.324442E-1,1.6918421E0,1.6918421E0,2.6672572E-1,-1.6553357E-2,-1.545072E-1,1.989294E-1,-2.9227868E-2,2.5147817E-1,3.293463E-1,7.603412E-2,1.0351772E-1,-1.1825209E-1,-1.418161E-1,1.7600027E-1,-1.7068289E-1,8.681883E-2,1.5604547E-2,2.4228713E-1,-1.4655288E-1,9.716048E-2,1.7851473E-1,-4.784834E-2],"split_indices":[13,18,15,18,15,18,1,15,1,17,0,11,0,0,18,0,10,0,4,19,2,0,14,18,0,13,13,0,0,0,0,0,0,0,0,0,0,0,0,0,0,0,0,0,0,0,0],"split_type":[0,0,0,0,0,0,0,0,0,0,0,0,0,0,0,0,0,0,0,0,0,0,0,0,0,0,0,0,0,0,0,0,0,0,0,0,0,0,0,0,0,0,0,0,0,0,0],"sum_hessian":[1.6124846E2,9.494739E1,6.630106E1,5.8927483E1,3.601991E1,4.0681374E1,2.5619688E1,1.6899565E1,4.202792E1,1.6261097E1,1.975881E1,2.45455E1,1.6135874E1,5.14574E0,2.047395E1,3.637475E0,1.3262091E1,2.582817E1,1.6199747E1,1.2469965E1,3.7911317E0,6.094029E0,1.3664782E1,1.7718569E1,6.8269296E0,4.0189743E0,1.6454975E1,1.1558231E1,1.7038591E0,2.4345219E1,1.4829519E0,9.8729725E0,6.3267746E0,1.006257E1,2.4073958E0,1.7745931E0,2.0165386E0,2.9567568E0,1.0708025E1,1.313714E1,4.5814295E0,3.9278994E0,2.89903E0,2.6336663E0,1.3853078E0,1.4458661E1,1.9963133E0],"tree_param":{"num_deleted":"0","num_feature":"23","num_nodes":"47","size_leaf_vector":"1"}},{"base_weights":[4.6993834E-3,5.1002853E-2,-1.657008E-1,9.718266E-2,-1.5501413E-1,-3.786021E-1,1.5829879E-1,1.0823295E-1,-1.618493E-1,-2.2426708E-1,2.5482824E-1,-1.1672286E-1,1.7211193E-1,-1.0999009E-1,1.6316316E-1,8.959515E-2,-1.4454395E-1],"categories":[],"categories_nodes":[],"categories_segments":[],"categories_sizes":[],"default_left":[0,0,0,0,0,0,0,0,0,0,0,0,0,0,0,0,0],"id":18,"left_children":[1,3,-1,5,-1,7,9,11,-1,13,15,-1,-1,-1,-1,-1,-1],"loss_changes":[3.7504907E0,3.56741E0,0E0,3.6919832E0,0E0,1.1951988E0,4.170787E0,1.2505308E0,0E0,2.711989E0,3.0304136E0,0E0,0E0,0E0,0E0,0E0,0E0],"parents":[2147483647,0,0,1,1,3,3,5,5,6,6,7,7,9,9,10,10],"right_children":[2,4,-1,6,-1,8,10,12,-1,14,16,-1,-1,-1,-1,-1,-1],"split_conditions":[1.7703635E0,1.73131E0,-1.657008E-1,-1.4095562E0,-1.5501413E-1,-5.6997865E-1,-4.8981482E-1,3.3031438E-2,-1.618493E-1,2.010879E0,1.5173378E0,-1.1672286E-1,1.7211193E-1,-1.0999009E-1,1.6316316E-1,8.959515E-2,-1.4454395E-1],"split_indices":[20,5,0,18,0,6,5,12,0,10,12,0,0,0,0,0,0],"split_type":[0,0,0,0,0,0,0,0,0,0,0,0,0,0,0,0,0],"sum_hessian":[1.4331697E2,1.3315678E2,1.0160196E1,1.23906654E2,9.250129E0,1.3513127E1,1.10393524E2,3.4379497E0,1.0075178E1,2.197577E1,8.8417755E1,1.7414851E0,1.6964644E0,1.8980635E1,2.9951358E0,8.401438E1,4.4033737E0],"tree_param":{"num_deleted":"0","num_feature":"23","num_nodes":"17","size_leaf_vector":"1"}},{"base_weights":[-3.27198E-2,6.949545E-2,-3.3752227E-1,1.2141901E-1,-1.5630496E-1,2.2654518E-1,-4.1679165E-1,1.9944577E-1,-3.3378717E-1,1.9171166E-1,-1.08911775E-1,2.5509436E-2,-4.566661E-1,3.0035296E-1,-1.6155218E-1,-5.2041537E-1,1.8278159E-1,-5.115782E-1,2.2363858E-2,-6.846922E-2,1.1115971E-1,-1.0976352E-1,1.4035562E-1,-1.7140879E-1,-2.7515398E-2,-1.7251332E-1,-2.4095103E-2,1.8694678E-1,-1.16586074E-1],"categories":[],"categories_nodes":[],"categories_segments":[],"categories_sizes":[],"default_left":[0,0,0,0,0,0,0,0,0,0,0,0,0,0,0,0,0,0,0,0,0,0,0,0,0,0,0,0,0],"id":19,"left_children":[1,3,5,7,-1,9,11,13,15,-1,-1,-1,17,19,21,23,-1,25,27,-1,-1,-1,-1,-1,-1,-1,-1,-1,-1],"loss_changes":[4.5589733E0,3.4313374E0,1.736732E0,3.68162E0,0E0,1.4902046E0,6.9027853E-1,3.2363732E0,3.0041342E0,0E0,0E0,0E0,8.0890894E-1,2.6346931E0,2.7134368E0,2.3773932E-1,0E0,6.994076E-1,1.2485938E0,0E0,0E0,0E0,0E0,0E0,0E0,0E0,0E0,0E0,0E0],"parents":[2147483647,0,0,1,1,2,2,3,3,5,5,6,6,7,7,8,8,12,12,13,13,14,14,15,15,17,17,18,18],"right_children":[2,4,6,8,-1,10,12,14,16,-1,-1,-1,18,20,22,24,-1,26,28,-1,-1,-1,-1,-1,-1,-1,-1,-1,-1],"split_conditions":[6.4276E-1,1.1645962E0,-1.344237E0,1.2215626E0,-1.5630496E-1,-3.1407037E-1,-1.4825885E0,6.4955777E-1,1.0240663E0,1.9171166E-1,-1.08911775E-1,2.5509436E-2,2.3209794E0,-1.2561767E0,1.1457489E0,3.820372E-1,1.8278159E-1,1.6716447E0,1.5608814E0,-6.846922E-2,1.1115971E-1,-1.0976352E-1,1.4035562E-1,-1.7140879E-1,-2.7515398E-2,-1.7251332E-1,-2.4095103E-2,1.8694678E-1,-1.16586074E-1],"split_indices":[16,6,15,22,0,18,18,15,8,0,0,0,6,14,14,16,0,1,8,0,0,0,0,0,0,0,0,0,0],"split_type":[0,0,0,0,0,0,0,0,0,0,0,0,0,0,0,0,0,0,0,0,0,0,0,0,0,0,0,0,0],"sum_hessian":[1.4457695E2,1.08847145E2,3.5729797E1,1.00779976E2,8.067174E0,4.1735573E0,3.155624E1,8.651271E1,1.42672615E1,2.4062097E0,1.7673477E0,2.2394989E0,2.9316742E1,6.774455E1,1.876816E1,1.2284386E1,1.9828758E0,2.6240768E1,3.075973E0,7.676193E0,6.006836E1,1.448464E1,4.28352E0,1.0682115E1,1.6022707E0,2.2583838E1,3.6569316E0,1.0397598E0,2.0362132E0],"tree_param":{"num_deleted":"0","num_feature":"23","num_nodes":"29","size_leaf_vector":"1"}},{"base_weights":[-4.8079486E-3,-1.6486894E-1,1.533177E-1,-2.550338E-1,2.2135137E-1,2.2452404E-1,-1.5614189E-1,2.5530633E-1,-3.4737134E-1,-2.9025236E-1,6.890248E-1,4.5086887E-1,8.602985E-2,6.4308584E-1,-1.290337E-1,3.962317E-1,-4.2663917E-1,-1.4372261E-1,6.649444E-2,-4.025022E-3,8.462964E-1,7.389604E-1,7.015037E-3,-4.703792E-1,2.2110611E-1,7.639108E-2,2.3412786E-1,2.5601208E-1,-3.998321E-2,-1.6117036E-1,4.3245234E-2,6.156208E-2,3.273562E-1,-2.3928357E-2,2.5306517E-1,-9.775584E-2,1.8166637E-1,-1.534903E-2,-1.5971488E-1,-1.216894E-1,1.00364946E-1],"categories":[],"categories_nodes":[],"categories_segments":[],"categories_sizes":[],"default_left":[0,0,0,0,0,0,0,0,0,0,0,0,0,0,0,0,0,0,0,0,0,0,0,0,0,0,0,0,0,0,0,0,0,0,0,0,0,0,0,0,0],"id":20,"left_children":[1,3,5,7,9,11,-1,13,15,17,19,21,23,25,-1,27,29,-1,-1,-1,31,33,35,37,39,-1,-1,-1,-1,-1,-1,-1,-1,-1,-1,-1,-1,-1,-1,-1,-1],"loss_changes":[3.4874246E0,2.440516E0,3.44317E0,2.7261174E0,3.4283624E0,1.9486966E0,0E0,2.7089682E0,2.9875622E0,7.9704714E-1,8.22844E-1,3.0421953E0,3.153155E0,1.3447046E-1,0E0,1.3542304E0,2.8355932E0,0E0,0E0,0E0,7.207899E-1,1.3039598E0,2.2673073E0,1.870681E-1,2.5051107E0,0E0,0E0,0E0,0E0,0E0,0E0,0E0,0E0,0E0,0E0,0E0,0E0,0E0,0E0,0E0,0E0],"parents":[2147483647,0,0,1,1,2,2,3,3,4,4,5,5,7,7,8,8,9,9,10,10,11,11,12,12,13,13,15,15,16,16,20,20,21,21,22,22,23,23,24,24],"right_children":[2,4,6,8,10,12,-1,14,16,18,20,22,24,26,-1,28,30,-1,-1,-1,32,34,36,38,40,-1,-1,-1,-1,-1,-1,-1,-1,-1,-1,-1,-1,-1,-1,-1,-1],"split_conditions":[3.0253103E-1,1.2215626E0,1.2913512E0,-1.2766508E0,3.0042055E-1,-4.9563892E-2,-1.5614189E-1,7.642277E-1,-1.4253265E0,1.0550753E0,5.2984583E-1,1.1998384E-1,-4.0013117E-1,-4.9563892E-2,-1.290337E-1,2.1463041E-1,1.2472388E0,-1.4372261E-1,6.649444E-2,-4.025022E-3,-1.2503257E-1,-1.2617903E0,5.8640456E-1,-1.5722672E0,-7.945807E-1,7.639108E-2,2.3412786E-1,2.5601208E-1,-3.998321E-2,-1.6117036E-1,4.3245234E-2,6.156208E-2,3.273562E-1,-2.3928357E-2,2.5306517E-1,-9.775584E-2,1.8166637E-1,-1.534903E-2,-1.5971488E-1,-1.216894E-1,1.00364946E-1],"split_indices":[2,22,0,15,13,8,0,13,14,15,3,7,16,8,0,0,14,0,0,0,19,19,6,17,11,0,0,0,0,0,0,0,0,0,0,0,0,0,0,0,0],"split_type":[0,0,0,0,0,0,0,0,0,0,0,0,0,0,0,0,0,0,0,0,0,0,0,0,0,0,0,0,0,0,0,0,0,0,0,0,0,0,0,0,0],"sum_hessian":[1.3579106E2,6.746137E1,6.832969E1,5.496842E1,1.2492954E1,6.240183E1,5.927863E0,8.151423E0,4.6816994E1,6.147436E0,6.3455176E0,2.2831757E1,3.9570072E1,5.2455087E0,2.9059148E0,4.124726E0,4.269227E1,4.5377398E0,1.6096966E0,1.3281459E0,5.017372E0,1.3442063E1,9.389692E0,7.2448025E0,3.2325268E1,2.1156714E0,3.1298375E0,1.8853832E0,2.2393425E0,3.581215E1,6.8801184E0,1.8948572E0,3.1225147E0,1.5495706E0,1.1892493E1,6.326758E0,3.0629342E0,1.1686393E0,6.0761633E0,4.5595737E0,2.7765696E1],"tree_param":{"num_deleted":"0","num_feature":"23","num_nodes":"41","size_leaf_vector":"1"}},{"base_weights":[2.3627773E-2,-2.1672867E-1,8.367773E-2,-3.7537843E-1,4.3384054E-1,2.1674158E-1,-8.842935E-2,-5.096386E-1,2.608497E-1,6.930594E-1,-9.660961E-2,6.105241E-2,4.5602214E-1,-2.9634202E-1,8.618922E-2,-1.7263898E-1,3.0831147E-2,1.8456803E-1,-1.1290662E-1,6.99557E-2,2.4519767E-1,4.022175E-1,-2.0934796E-1,-8.046045E-2,5.893518E-1,3.587517E-1,-4.6800017E-1,7.065065E-1,-5.5807438E-2,2.362963E-1,-1.4195504E-2,-1.01585574E-1,1.6523655E-1,-1.3850081E-1,1.8903463E-1,2.1666059E-1,-1.2263295E-1,2.1134326E-1,-1.0287259E-1,-1.6592589E-1,3.0852644E-2,2.5086382E-1,2.6868599E-2,1.0933562E-1,-1.007694E-1],"categories":[],"categories_nodes":[],"categories_segments":[],"categories_sizes":[],"default_left":[0,0,0,0,0,0,0,0,0,0,0,0,0,0,0,0,0,0,0,0,0,0,0,0,0,0,0,0,0,0,0,0,0,0,0,0,0,0,0,0,0,0,0,0,0],"id":21,"left_children":[1,3,5,7,9,11,13,15,17,19,-1,21,23,25,27,-1,-1,-1,-1,-1,-1,29,31,33,35,37,39,41,43,-1,-1,-1,-1,-1,-1,-1,-1,-1,-1,-1,-1,-1,-1,-1,-1],"loss_changes":[2.0452592E0,3.0892696E0,2.609147E0,2.1258457E0,1.4032375E0,2.359023E0,1.8416274E0,8.493986E-1,1.2989272E0,8.382416E-2,0E0,3.7714925E0,1.8428664E0,2.7610047E0,2.5024753E0,0E0,0E0,0E0,0E0,0E0,0E0,3.158667E0,2.4421635E0,1.8826785E0,2.9770322E0,1.5403408E0,9.654317E-1,3.477695E-1,2.90992E0,0E0,0E0,0E0,0E0,0E0,0E0,0E0,0E0,0E0,0E0,0E0,0E0,0E0,0E0,0E0,0E0],"parents":[2147483647,0,0,1,1,2,2,3,3,4,4,5,5,6,6,7,7,8,8,9,9,11,11,12,12,13,13,14,14,21,21,22,22,23,23,24,24,25,25,26,26,27,27,28,28],"right_children":[2,4,6,8,10,12,14,16,18,20,-1,22,24,26,28,-1,-1,-1,-1,-1,-1,30,32,34,36,38,40,42,44,-1,-1,-1,-1,-1,-1,-1,-1,-1,-1,-1,-1,-1,-1,-1,-1],"split_conditions":[-9.2157674E-1,1.310208E0,3.0042055E-1,1.212181E0,2.2455873E-1,2.3029266E-1,6.546639E-2,1.2916273E0,7.8473026E-1,8.212949E-3,-9.660961E-2,-4.9697545E-1,-5.6968373E-1,-5.491156E-1,-8.10357E-1,-1.7263898E-1,3.0831147E-2,1.8456803E-1,-1.1290662E-1,6.99557E-2,2.4519767E-1,-1.4095562E0,4.872512E-1,1.73131E0,6.8335086E-1,7.6654375E-1,1.0197511E0,7.642277E-1,-9.348456E-1,2.362963E-1,-1.4195504E-2,-1.01585574E-1,1.6523655E-1,-1.3850081E-1,1.8903463E-1,2.1666059E-1,-1.2263295E-1,2.1134326E-1,-1.0287259E-1,-1.6592589E-1,3.0852644E-2,2.5086382E-1,2.6868599E-2,1.0933562E-1,-1.007694E-1],"split_indices":[16,1,13,11,10,21,5,15,15,6,0,1,18,16,21,0,0,0,0,0,0,18,8,5,15,2,21,13,18,0,0,0,0,0,0,0,0,0,0,0,0,0,0,0,0],"split_type":[0,0,0,0,0,0,0,0,0,0,0,0,0,0,0,0,0,0,0,0,0,0,0,0,0,0,0,0,0,0,0,0,0,0,0,0,0,0,0,0,0,0,0,0,0],"sum_hessian":[1.3944678E2,2.7353262E1,1.1209352E2,2.2330645E1,5.022618E0,6.3071064E1,4.9022457E1,1.8603752E1,3.7268918E0,3.801896E0,1.2207217E0,3.8970108E1,2.4100954E1,2.2059656E1,2.6962803E1,1.6852676E1,1.7510763E0,2.4171197E0,1.3097719E0,1.4207189E0,2.381177E0,1.7014883E1,2.1955225E1,4.876352E0,1.9224602E1,4.353938E0,1.7705719E1,4.281855E0,2.2680946E1,8.755594E0,8.259289E0,1.9238081E1,2.7171447E0,3.4017003E0,1.4746517E0,1.721036E1,2.0142434E0,2.9140816E0,1.4398566E0,1.5436028E1,2.2696912E0,3.2443533E0,1.0375018E0,8.95032E0,1.3730627E1],"tree_param":{"num_deleted":"0","num_feature":"23","num_nodes":"45","size_leaf_vector":"1"}},{"base_weights":[3.5182428E-2,7.711678E-2,-1.5955715E-1,-1.52722E-1,1.1588096E-1,1.5504675E-1,-1.4560989E-1,2.7293723E-2,3.3027548E-1,1.01403184E-1,-2.9174523E-2,1.120528E-1,-1.23075195E-1],"categories":[],"categories_nodes":[],"categories_segments":[],"categories_sizes":[],"default_left":[0,0,0,0,0,0,0,0,0,0,0,0,0],"id":22,"left_children":[1,3,-1,-1,5,7,-1,9,11,-1,-1,-1,-1],"loss_changes":[3.2452154E0,2.929988E0,0E0,0E0,2.8851404E0,2.5157819E0,0E0,2.5992315E0,1.6728892E0,0E0,0E0,0E0,0E0],"parents":[2147483647,0,0,1,1,4,4,5,5,7,7,8,8],"right_children":[2,4,-1,-1,6,8,-1,10,12,-1,-1,-1,-1],"split_conditions":[1.653198E0,-1.4460723E0,-1.5955715E-1,-1.52722E-1,1.73131E0,2.2455873E-1,-1.4560989E-1,-9.9606895E-1,1.7733248E0,1.01403184E-1,-2.9174523E-2,1.120528E-1,-1.23075195E-1],"split_indices":[14,18,0,0,5,10,0,16,21,0,0,0,0],"split_type":[0,0,0,0,0,0,0,0,0,0,0,0,0],"sum_hessian":[1.3375235E2,1.2534659E2,8.405772E0,7.022351E0,1.18324234E2,1.1178461E2,6.5396266E0,6.531877E1,4.6465836E1,1.8199442E1,4.711933E1,4.4370956E1,2.0948765E0],"tree_param":{"num_deleted":"0","num_feature":"23","num_nodes":"13","size_leaf_vector":"1"}},{"base_weights":[8.499505E-3,1.2537345E-1,-2.4042827E-1,3.0957323E-1,-3.862486E-2,2.1558252E-1,-4.1692376E-1,3.6994284E-1,-1.3819209E-1,-4.0342754E-1,1.0124876E-1,-1.4924301E-1,6.22377E-1,-1.6786826E-1,-1.4980325E-1,4.5609522E-1,-3.0458236E-1,1.2204159E-1,-5.131468E-1,-4.7610443E-2,3.767813E-1,-9.247896E-2,2.382574E-1,1.5261947E-1,-4.2960787E-1,-1.3272409E-2,1.55757E-1,-1.3238059E-1,3.989833E-2,-2.1098882E-2,-1.7278686E-1,2.1113156E-1,-4.3714E-2,1.9924802E-1,-6.708E-2,-1.5417561E-1,4.4503152E-2],"categories":[],"categories_nodes":[],"categories_segments":[],"categories_sizes":[],"default_left":[0,0,0,0,0,0,0,0,0,0,0,0,0,0,0,0,0,0,0,0,0,0,0,0,0,0,0,0,0,0,0,0,0,0,0,0,0],"id":23,"left_children":[1,3,5,7,9,11,13,15,-1,17,19,-1,21,-1,23,25,27,-1,29,31,33,-1,-1,-1,35,-1,-1,-1,-1,-1,-1,-1,-1,-1,-1,-1,-1],"loss_changes":[4.170787E0,2.9575338E0,3.7772677E0,2.3109918E0,2.718288E0,4.2091575E0,1.1876812E0,2.6519709E0,0E0,1.519417E0,1.6064041E0,0E0,1.6845832E0,0E0,2.610691E0,1.2461777E0,3.874902E-1,0E0,3.3294654E-1,2.0214293E0,2.5116572E0,0E0,0E0,0E0,5.4661703E-1,0E0,0E0,0E0,0E0,0E0,0E0,0E0,0E0,0E0,0E0,0E0,0E0],"parents":[2147483647,0,0,1,1,2,2,3,3,4,4,5,5,6,6,7,7,9,9,10,10,12,12,14,14,15,15,16,16,18,18,19,19,20,20,24,24],"right_children":[2,4,6,8,10,12,14,16,-1,18,20,-1,22,-1,24,26,28,-1,30,32,34,-1,-1,-1,36,-1,-1,-1,-1,-1,-1,-1,-1,-1,-1,-1,-1],"split_conditions":[-2.0898627E-2,-3.4576795E-1,-7.353462E-1,1.2215626E0,-9.5882285E-1,-3.90276E-1,1.1212076E0,9.0348274E-1,-1.3819209E-1,-1.1481144E0,5.8595645E-1,-1.4924301E-1,-5.6997865E-1,-1.6786826E-1,-3.1407037E-1,-8.810487E-1,1.212181E0,1.2204159E-1,-1.499107E0,-8.8433063E-1,1.1830934E0,-9.247896E-2,2.382574E-1,1.5261947E-1,6.328059E-1,-1.3272409E-2,1.55757E-1,-1.3238059E-1,3.989833E-2,-2.1098882E-2,-1.7278686E-1,2.1113156E-1,-4.3714E-2,1.9924802E-1,-6.708E-2,-1.5417561E-1,4.4503152E-2],"split_indices":[21,3,16,22,16,19,20,16,0,19,17,0,6,0,18,9,11,0,17,16,18,0,0,0,19,0,0,0,0,0,0,0,0,0,0,0,0],"split_type":[0,0,0,0,0,0,0,0,0,0,0,0,0,0,0,0,0,0,0,0,0,0,0,0,0,0,0,0,0,0,0,0,0,0,0,0,0],"sum_hessian":[1.4132356E2,9.650833E1,4.4815228E1,4.503651E1,5.1471817E1,1.2443511E1,3.2371716E1,4.224502E1,2.7914915E0,1.3743455E1,3.7728363E1,4.439213E0,8.004297E0,2.0389397E1,1.198232E1,3.7747612E1,4.497409E0,1.316195E0,1.2427259E1,2.5031857E1,1.2696505E1,1.1236784E0,6.880619E0,3.329053E0,8.653267E0,4.260552E0,3.348706E1,3.4205058E0,1.0769032E0,1.8070393E0,1.062022E1,2.1778235E0,2.2854034E1,8.51465E0,4.181855E0,7.6483316E0,1.0049353E0],"tree_param":{"num_deleted":"0","num_feature":"23","num_nodes":"37","size_leaf_vector":"1"}},{"base_weights":[2.5214924E-2,3.058448E-1,-5.19051E-2,3.5800764E-1,-1.0611647E-1,-2.0273733E-1,1.4775796E-1,2.5935763E-1,2.5835854E-1,4.6316263E-1,-2.6104733E-1,-3.520763E-1,2.9878744E-1,-9.64763E-2,3.4327728E-1,-8.80307E-2,2.2055586E-1,-3.131963E-1,3.2733467E-1,-1.5642388E-1,6.819845E-2,-1.0565933E-2,4.6677867E-1,1.6517955E-1,-1.3612266E-2,-1.0789336E-1,8.8003434E-2,2.193315E-1,-1.157686E-1,1.5718943E-1,-4.8967652E-2,-1.1724872E-3,1.9330074E-1],"categories":[],"categories_nodes":[],"categories_segments":[],"categories_sizes":[],"default_left":[0,0,0,0,0,0,0,0,0,0,0,0,0,0,0,0,0,0,0,0,0,0,0,0,0,0,0,0,0,0,0,0,0],"id":24,"left_children":[1,3,5,7,-1,9,11,13,-1,15,17,19,21,-1,23,-1,-1,25,27,-1,-1,29,31,-1,-1,-1,-1,-1,-1,-1,-1,-1,-1],"loss_changes":[2.8109949E0,1.0894969E0,3.1067266E0,1.0887172E0,0E0,2.3970802E0,3.467829E0,1.2575663E0,0E0,1.2613287E0,1.7760198E0,1.1777085E0,1.8107872E0,0E0,1.7206256E0,0E0,0E0,1.5313582E0,1.701705E0,0E0,0E0,1.1632326E0,1.8864326E0,0E0,0E0,0E0,0E0,0E0,0E0,0E0,0E0,0E0,0E0],"parents":[2147483647,0,0,1,1,2,2,3,3,5,5,6,6,7,7,9,9,10,10,11,11,12,12,14,14,17,17,18,18,21,21,22,22],"right_children":[2,4,6,8,-1,10,12,14,-1,16,18,20,22,-1,24,-1,-1,26,28,-1,-1,30,32,-1,-1,-1,-1,-1,-1,-1,-1,-1,-1],"split_conditions":[-1.1414782E0,9.324442E-1,4.9832478E-1,1.0104291E0,-1.0611647E-1,-1.1860064E0,2.0880012E-1,-1.2617903E0,2.5835854E-1,-8.10357E-1,1.7762313E0,1.1645962E0,-1.442765E-1,-9.64763E-2,-1.344237E0,-8.80307E-2,2.2055586E-1,2.024516E0,2.5388664E-1,-1.5642388E-1,6.819845E-2,-5.6997865E-1,-9.348456E-1,1.6517955E-1,-1.3612266E-2,-1.0789336E-1,8.8003434E-2,2.193315E-1,-1.157686E-1,1.5718943E-1,-4.8967652E-2,-1.1724872E-3,1.9330074E-1],"split_indices":[15,0,9,14,0,19,11,19,0,21,7,6,0,0,15,0,0,21,19,0,0,6,18,0,0,0,0,0,0,0,0,0,0],"split_type":[0,0,0,0,0,0,0,0,0,0,0,0,0,0,0,0,0,0,0,0,0,0,0,0,0,0,0,0,0,0,0,0,0],"sum_hessian":[1.2815149E2,2.6986229E1,1.0116526E2,2.5432098E1,1.5541291E0,5.7621006E1,4.3544254E1,2.2530432E1,2.9016664E0,4.0803466E0,5.3540657E1,9.795321E0,3.374893E1,2.486336E0,2.0044096E1,1.058249E0,3.0220976E0,4.961125E1,3.9294047E0,7.657446E0,2.1378756E0,1.2207007E1,2.1541925E1,1.2799615E1,7.2444816E0,4.6460423E1,3.1508298E0,2.4930112E0,1.4363935E0,2.1714673E0,1.0035541E1,6.16831E0,1.5373614E1],"tree_param":{"num_deleted":"0","num_feature":"23","num_nodes":"33","size_leaf_vector":"1"}},{"base_weights":[6.0610656E-2,1.2740732E-2,3.85648E-1,-3.0812588E-1,5.3796787E-2,5.5526936E-1,-2.8933358E-1,-4.26405E-1,1.8001099E-1,-1.41487885E-2,2.5123546E-1,6.725465E-1,-5.9056386E-2,2.0873744E-2,-1.3342334E-1,-1.5732098E-1,4.9583465E-2,-6.7223147E-3,8.786932E-2,1.7481416E-1,-2.267899E-1,-2.914889E-1,5.025646E-1,-3.8649604E-2,7.849655E-1,-9.04523E-2,7.034302E-2,-1.3278085E-1,7.043567E-2,1.1256292E-2,-1.0152043E-1,9.333363E-2,-1.3274683E-1,-6.0213683E-3,1.8484496E-1,2.5081488E-1,7.348734E-2],"categories":[],"categories_nodes":[],"categories_segments":[],"categories_sizes":[],"default_left":[0,0,0,0,0,0,0,0,0,0,0,0,0,0,0,0,0,0,0,0,0,0,0,0,0,0,0,0,0,0,0,0,0,0,0,0,0],"id":25,"left_children":[1,3,5,7,9,11,13,15,17,19,21,23,25,-1,-1,-1,-1,-1,-1,27,29,31,33,-1,35,-1,-1,-1,-1,-1,-1,-1,-1,-1,-1,-1,-1],"loss_changes":[2.1171813E0,1.5962399E0,2.1612322E0,8.707093E-1,1.4411254E0,1.0704813E0,2.633563E-1,7.4571824E-1,8.391853E-2,3.2811265E0,3.8961096E0,1.190701E0,2.993366E-1,0E0,0E0,0E0,0E0,0E0,0E0,1.7064066E0,1.1452909E0,9.8696446E-1,1.1495199E0,0E0,9.1677666E-2,0E0,0E0,0E0,0E0,0E0,0E0,0E0,0E0,0E0,0E0,0E0,0E0],"parents":[2147483647,0,0,1,1,2,2,3,3,4,4,5,5,6,6,7,7,8,8,9,9,10,10,11,11,12,12,19,19,20,20,21,21,22,22,24,24],"right_children":[2,4,6,8,10,12,14,16,18,20,22,24,26,-1,-1,-1,-1,-1,-1,28,30,32,34,-1,36,-1,-1,-1,-1,-1,-1,-1,-1,-1,-1,-1,-1],"split_conditions":[1.73131E0,-1.2940378E0,3.1713266E0,1.212181E0,7.6885676E-1,5.1091544E-2,3.037412E0,1.5957655E0,5.8733463E-1,-2.7660027E-1,1.4021088E-1,-6.254944E-1,1.5608814E0,2.0873744E-2,-1.3342334E-1,-1.5732098E-1,4.9583465E-2,-6.7223147E-3,8.786932E-2,-1.2900066E0,-4.7486532E-1,-1.774718E0,-2.9664993E-1,-3.8649604E-2,1.6193681E0,-9.04523E-2,7.034302E-2,-1.3278085E-1,7.043567E-2,1.1256292E-2,-1.0152043E-1,9.333363E-2,-1.3274683E-1,-6.0213683E-3,1.8484496E-1,2.5081488E-1,7.348734E-2],"split_indices":[5,16,8,11,17,18,4,15,1,19,19,2,8,0,0,0,0,0,0,14,17,18,15,0,14,0,0,0,0,0,0,0,0,0,0,0,0],"split_type":[0,0,0,0,0,0,0,0,0,0,0,0,0,0,0,0,0,0,0,0,0,0,0,0,0,0,0,0,0,0,0,0,0,0,0,0,0],"sum_hessian":[1.3538567E2,1.1891208E2,1.6473597E1,1.2751319E1,1.0616076E2,1.3306947E1,3.1666489E0,1.036602E1,2.3852983E0,7.967138E1,2.6489378E1,1.1094242E1,2.2127054E0,1.1237351E0,2.0429137E0,8.990644E0,1.375376E0,1.1409495E0,1.2443489E0,4.227855E1,3.739283E1,8.333686E0,1.8155693E1,1.3468966E0,9.747345E0,1.196915E0,1.0157903E0,3.178194E0,3.9100357E1,1.1299034E1,2.6093794E1,1.4573741E0,6.8763123E0,3.388339E0,1.4767353E1,8.404109E0,1.3432357E0],"tree_param":{"num_deleted":"0","num_feature":"23","num_nodes":"37","size_leaf_vector":"1"}},{"base_weights":[-3.2293007E-2,-4.6704826E-1,2.8005727E-2,9.641994E-3,-1.6295354E-1,9.4913006E-2,-3.465144E-1,1.3591449E-1,-1.5090041E-1,-4.9185157E-1,1.2493977E-1,5.1694587E-2,4.6643957E-1,1.2081075E-3,-1.6140325E-1,1.1840644E-1,-7.7713775E-3,-3.376779E-2,1.9632664E-1],"categories":[],"categories_nodes":[],"categories_segments":[],"categories_sizes":[],"default_left":[0,0,0,0,0,0,0,0,0,0,0,0,0,0,0,0,0,0,0],"id":26,"left_children":[1,3,5,-1,-1,7,9,11,-1,13,-1,15,17,-1,-1,-1,-1,-1,-1],"loss_changes":[3.5214567E0,6.3909125E-1,3.0015879E0,0E0,0E0,2.5517879E0,2.2199137E0,2.6367254E0,0E0,3.6205196E-1,0E0,2.067679E0,2.1727467E0,0E0,0E0,0E0,0E0,0E0,0E0],"parents":[2147483647,0,0,1,1,2,2,5,5,6,6,7,7,9,9,11,11,12,12],"right_children":[2,4,6,-1,-1,8,10,12,-1,14,-1,16,18,-1,-1,-1,-1,-1,-1],"split_conditions":[-7.835748E-1,-6.254944E-1,1.2305565E0,9.641994E-3,-1.6295354E-1,1.7703635E0,2.7188802E0,9.479821E-1,-1.5090041E-1,-4.9697545E-1,1.2493977E-1,-7.945807E-1,1.5591195E-1,1.2081075E-3,-1.6140325E-1,1.1840644E-1,-7.7713775E-3,-3.376779E-2,1.9632664E-1],"split_indices":[3,2,2,0,0,20,3,21,0,1,0,11,22,0,0,0,0,0,0],"split_type":[0,0,0,0,0,0,0,0,0,0,0,0,0,0,0,0,0,0,0],"sum_hessian":[1.3282991E2,1.53573675E1,1.1747254E2,2.1086566E0,1.3248711E1,1.0030061E2,1.717193E1,9.458707E1,5.7135453E0,1.4722796E1,2.4491339E0,7.6301384E1,1.8285679E1,1.3315048E0,1.3391292E1,1.3323665E1,6.297772E1,4.5800486E0,1.3705631E1],"tree_param":{"num_deleted":"0","num_feature":"23","num_nodes":"19","size_leaf_vector":"1"}},{"base_weights":[-6.393706E-2,7.973216E-3,-3.4410048E-1,-2.2399102E-1,7.920486E-2,1.1858204E-1,-4.2335784E-1,-3.7457672E-1,1.608745E-1,1.7389101E-1,-2.0914763E-1,3.7701204E-2,-4.8209628E-1,-1.16281256E-1,-1.7179126E-1,5.400698E-1,-1.3559581E-1,-3.4210587E-1,2.3922029E-1,7.540178E-2,-1.6187638E-1,6.191794E-2,-1.6620317E-1,1.6035768E-1,-9.686253E-2,1.6653596E-3,2.1455143E-1,1.0437887E-1,-1.6070965E-1,-7.7364766E-3,1.2598348E-1,1.6093306E-1,-5.0972037E-2,1.5332799E-1,-1.1016106E-1],"categories":[],"categories_nodes":[],"categories_segments":[],"categories_sizes":[],"default_left":[0,0,0,0,0,0,0,0,0,0,0,0,0,0,0,0,0,0,0,0,0,0,0,0,0,0,0,0,0,0,0,0,0,0,0],"id":27,"left_children":[1,3,5,7,9,-1,11,13,15,17,19,-1,21,23,-1,25,-1,27,29,31,-1,33,-1,-1,-1,-1,-1,-1,-1,-1,-1,-1,-1,-1,-1],"loss_changes":[2.6338453E0,1.7510355E0,1.7318044E0,1.5037042E0,2.2477608E0,0E0,8.537526E-1,8.646064E-1,2.0344558E0,2.1556232E0,1.9659371E0,0E0,9.116154E-1,1.4034536E0,0E0,4.841156E-1,0E0,1.164901E0,2.6542628E0,1.4346471E0,0E0,8.657217E-1,0E0,0E0,0E0,0E0,0E0,0E0,0E0,0E0,0E0,0E0,0E0,0E0,0E0],"parents":[2147483647,0,0,1,1,2,2,3,3,4,4,6,6,7,7,8,8,9,9,10,10,12,12,13,13,15,15,17,17,18,18,19,19,21,21],"right_children":[2,4,6,8,10,-1,12,14,16,18,20,-1,22,24,-1,26,-1,28,30,32,-1,34,-1,-1,-1,-1,-1,-1,-1,-1,-1,-1,-1,-1,-1],"split_conditions":[6.7206633E-1,-6.271938E-1,-1.344237E0,2.2589794E-1,7.642277E-1,1.1858204E-1,-9.097387E-1,-5.7973564E-1,6.591166E-1,-1.2430466E0,2.0880012E-1,3.7701204E-2,-1.3893669E0,-1.0910009E0,-1.7179126E-1,-4.9563892E-2,-1.3559581E-1,-1.1860064E0,-3.90276E-1,-8.6181325E-1,-1.6187638E-1,-1.3553876E-1,-1.6620317E-1,1.6035768E-1,-9.686253E-2,1.6653596E-3,2.1455143E-1,1.0437887E-1,-1.6070965E-1,-7.7364766E-3,1.2598348E-1,1.6093306E-1,-5.0972037E-2,1.5332799E-1,-1.1016106E-1],"split_indices":[7,13,15,1,13,0,22,19,17,17,11,0,17,13,0,8,0,19,19,18,0,1,0,0,0,0,0,0,0,0,0,0,0,0,0],"split_type":[0,0,0,0,0,0,0,0,0,0,0,0,0,0,0,0,0,0,0,0,0,0,0,0,0,0,0,0,0,0,0,0,0,0,0],"sum_hessian":[1.2959761E2,1.03900696E2,2.5696922E1,2.3906189E1,7.999451E1,2.1018677E0,2.3595055E1,1.7202232E1,6.7039557E0,6.0518898E1,1.9475607E1,2.1702468E0,2.1424809E1,8.154659E0,9.047573E0,4.2148643E0,2.4890919E0,6.3249865E0,5.4193913E1,1.0879148E1,8.59646E0,2.517737E0,1.8907072E1,1.582423E0,6.572236E0,1.294611E0,2.920253E0,1.2110704E0,5.1139164E0,2.2320774E1,3.1873137E1,3.3660536E0,7.5130935E0,1.1367947E0,1.3809423E0],"tree_param":{"num_deleted":"0","num_feature":"23","num_nodes":"35","size_leaf_vector":"1"}},{"base_weights":[4.013222E-3,-1.3926218E-1,1.3957329E-1,-3.0699164E-1,7.913295E-2,7.769769E-2,4.6327034E-1,9.416725E-2,-3.585056E-1,2.441541E-1,-3.7391874E-1,2.7261695E-1,-1.11135975E-1,-9.203821E-2,5.874917E-1,-4.790569E-1,-1.516362E-1,4.8769806E-2,7.274281E-1,-1.4086026E-1,1.695635E-2,5.625059E-1,-2.0338483E-2,1.9181459E-1,-2.0450099E-1,2.2089678E-1,2.9518299E-2,-1.5833576E-1,3.0261243E-2,1.9365989E-1,-9.05876E-2,-2.4805205E-2,2.0391501E-1,2.613098E-1,6.733592E-2,5.569793E-4,1.9610463E-1,-9.847389E-2,9.7188756E-2,-8.30975E-2,9.5901385E-2],"categories":[],"categories_nodes":[],"categories_segments":[],"categories_sizes":[],"default_left":[0,0,0,0,0,0,0,0,0,0,0,0,0,0,0,0,0,0,0,0,0,0,0,0,0,0,0,0,0,0,0,0,0,0,0,0,0,0,0,0,0],"id":28,"left_children":[1,3,5,7,9,11,13,-1,15,17,19,21,23,-1,25,27,29,31,33,-1,-1,35,37,-1,39,-1,-1,-1,-1,-1,-1,-1,-1,-1,-1,-1,-1,-1,-1,-1,-1],"loss_changes":[2.3354223E0,2.166208E0,1.2012049E0,1.1768768E0,2.0497093E0,1.9832691E0,1.1092024E0,0E0,7.0530224E-1,1.8346928E0,3.3064103E-1,2.253326E0,2.069003E0,0E0,5.612376E-1,5.9712076E-1,1.7465775E0,1.3148878E0,2.1116495E-1,0E0,0E0,6.7883873E-1,1.6005857E0,0E0,1.0520941E0,0E0,0E0,0E0,0E0,0E0,0E0,0E0,0E0,0E0,0E0,0E0,0E0,0E0,0E0,0E0,0E0],"parents":[2147483647,0,0,1,1,2,2,3,3,4,4,5,5,6,6,8,8,9,9,10,10,11,11,12,12,14,14,15,15,16,16,17,17,18,18,21,21,22,22,24,24],"right_children":[2,4,6,8,10,12,14,-1,16,18,20,22,24,-1,26,28,30,32,34,-1,-1,36,38,-1,40,-1,-1,-1,-1,-1,-1,-1,-1,-1,-1,-1,-1,-1,-1,-1,-1],"split_conditions":[3.0253103E-1,2.2455873E-1,1.6918421E0,-1.5356871E0,1.0240663E0,3.3031438E-2,-1.3553876E-1,9.416725E-2,-2.2038102E-1,9.6765274E-1,2.661705E-1,-7.487277E-1,-1.0400988E0,-9.203821E-2,4.2877477E-1,1.8223476E0,-1.0809104E0,1.8776982E0,6.157646E-1,-1.4086026E-1,1.695635E-2,-8.10357E-1,1.3085075E-1,1.9181459E-1,3.1713266E0,2.2089678E-1,2.9518299E-2,-1.5833576E-1,3.0261243E-2,1.9365989E-1,-9.05876E-2,-2.4805205E-2,2.0391501E-1,2.613098E-1,6.733592E-2,5.569793E-4,1.9610463E-1,-9.847389E-2,9.7188756E-2,-8.30975E-2,9.5901385E-2],"split_indices":[2,10,13,17,8,12,1,0,20,3,14,14,15,0,20,14,18,9,15,0,0,21,14,0,8,0,0,0,0,0,0,0,0,0,0,0,0,0,0,0,0],"split_type":[0,0,0,0,0,0,0,0,0,0,0,0,0,0,0,0,0,0,0,0,0,0,0,0,0,0,0,0,0,0,0,0,0,0,0,0,0,0,0,0,0],"sum_hessian":[1.1824284E2,5.747226E1,6.077058E1,3.2277317E1,2.5194944E1,5.2059326E1,8.711253E0,2.0826342E0,3.0194683E1,1.8806051E1,6.388892E0,2.5398556E1,2.666077E1,1.0058877E0,7.705365E0,1.8246155E1,1.1948527E1,1.4175793E1,4.6302586E0,5.153336E0,1.2355564E0,1.23036175E1,1.3094937E1,2.3026493E0,2.4358122E1,5.520133E0,2.1852326E0,1.6914785E1,1.3313694E0,1.3730166E0,1.0575511E1,1.2450717E1,1.725076E0,3.0326455E0,1.5976132E0,1.8637338E0,1.0439884E1,6.937433E0,6.157505E0,2.181304E1,2.5450819E0],"tree_param":{"num_deleted":"0","num_feature":"23","num_nodes":"41","size_leaf_vector":"1"}},{"base_weights":[-9.840695E-3,-2.1811709E-1,5.6449767E-2,-3.026723E-1,4.3105245E-1,-3.7509975E-1,1.2355014E-1,-8.024311E-2,-1.5997946E-1,-3.0014664E-2,2.0457624E-1,1.16688415E-1,-4.8616204E-1,3.494878E-1,2.1767665E-3,-1.4644286E-1,2.0246571E-1,1.2876251E-2,-1.6216147E-1,-2.7243158E-1,4.28573E-1,-7.958128E-2,2.9839098E-1,1.522485E-1,-8.8336855E-2,-1.3338113E-1,3.0228382E-2,1.637713E-1,2.5302881E-2,-8.8809766E-2,3.6442224E-2,1.9249484E-1,-6.646984E-2],"categories":[],"categories_nodes":[],"categories_segments":[],"categories_sizes":[],"default_left":[0,0,0,0,0,0,0,0,0,0,0,0,0,0,0,0,0,0,0,0,0,0,0,0,0,0,0,0,0,0,0,0,0],"id":29,"left_children":[1,3,5,7,9,11,13,15,-1,-1,-1,-1,17,19,21,-1,23,-1,-1,25,27,29,31,-1,-1,-1,-1,-1,-1,-1,-1,-1,-1],"loss_changes":[1.8150578E0,1.8721455E0,2.9374235E0,1.4272382E0,6.1037916E-1,1.3501855E0,2.389339E0,1.9168924E0,0E0,0E0,0E0,0E0,3.7967253E-1,1.6145399E0,1.4212422E0,0E0,1.6680267E0,0E0,0E0,3.04826E-1,1.0608306E0,2.0383651E0,2.4075325E0,0E0,0E0,0E0,0E0,0E0,0E0,0E0,0E0,0E0,0E0],"parents":[2147483647,0,0,1,1,2,2,3,3,4,4,5,5,6,6,7,7,12,12,13,13,14,14,16,16,19,19,20,20,21,21,22,22],"right_children":[2,4,6,8,10,12,14,16,-1,-1,-1,-1,18,20,22,-1,24,-1,-1,26,28,30,32,-1,-1,-1,-1,-1,-1,-1,-1,-1,-1],"split_conditions":[-4.3209866E-1,1.1564547E0,-5.6997865E-1,-4.9563892E-2,-2.1234187E-1,-1.2209972E0,-2.1234187E-1,-1.766545E-1,-1.5997946E-1,-3.0014664E-2,2.0457624E-1,1.16688415E-1,-7.945807E-1,-1.0967264E0,9.324442E-1,-1.4644286E-1,-1.6338661E-1,1.2876251E-2,-1.6216147E-1,3.0253103E-1,5.8640456E-1,7.104905E-1,2.701887E-1,1.522485E-1,-8.8336855E-2,-1.3338113E-1,3.0228382E-2,1.637713E-1,2.5302881E-2,-8.8809766E-2,3.6442224E-2,1.9249484E-1,-6.646984E-2],"split_indices":[7,15,6,8,4,0,4,16,0,0,0,0,11,17,0,0,13,0,0,2,6,11,18,0,0,0,0,0,0,0,0,0,0],"split_type":[0,0,0,0,0,0,0,0,0,0,0,0,0,0,0,0,0,0,0,0,0,0,0,0,0,0,0,0,0,0,0,0,0],"sum_hessian":[1.2956995E2,3.0729946E1,9.884E1,2.766084E1,3.069107E0,1.2682648E1,8.615735E1,1.4765781E1,1.2895059E1,1.1774898E0,1.8916174E0,1.292006E0,1.1390641E1,2.9452255E1,5.670509E1,5.74708E0,9.018702E0,1.0811977E0,1.0309444E1,3.046901E0,2.6405354E1,4.5012527E1,1.1692563E1,5.575174E0,3.4435275E0,1.9540504E0,1.0928504E0,1.9256035E1,7.1493196E0,2.144884E1,2.3563688E1,6.902029E0,4.790534E0],"tree_param":{"num_deleted":"0","num_feature":"23","num_nodes":"33","size_leaf_vector":"1"}},{"base_weights":[7.5717717E-3,-3.936695E-1,6.1471116E-2,-4.7710124E-1,5.77012E-2,9.705819E-2,-1.4623146E-1,-1.5637757E-1,-2.922049E-4,-8.7380394E-2,1.0949113E-1,-1.359819E-1,1.2318427E-1,1.5101844E-1,-1.3713248E-1,7.808091E-2,6.860945E-3],"categories":[],"categories_nodes":[],"categories_segments":[],"categories_sizes":[],"default_left":[0,0,0,0,0,0,0,0,0,0,0,0,0,0,0,0,0],"id":30,"left_children":[1,3,5,7,9,11,-1,-1,-1,-1,-1,-1,13,15,-1,-1,-1],"loss_changes":[2.7498374E0,5.9467435E-1,2.2345667E0,2.68996E-1,4.538889E-1,1.5797303E0,0E0,0E0,0E0,0E0,0E0,0E0,1.7160584E0,1.3668575E0,0E0,0E0,0E0],"parents":[2147483647,0,0,1,1,2,2,3,3,4,4,5,5,12,12,13,13],"right_children":[2,4,6,8,10,12,-1,-1,-1,-1,-1,-1,14,16,-1,-1,-1],"split_conditions":[-7.835748E-1,9.4072884E-1,1.7427878E0,2.2872133E0,7.17144E-1,-1.4460723E0,-1.4623146E-1,-1.5637757E-1,-2.922049E-4,-8.7380394E-2,1.0949113E-1,-1.359819E-1,1.7703635E0,-1.3553876E-1,-1.3713248E-1,7.808091E-2,6.860945E-3],"split_indices":[3,16,6,22,15,18,0,0,0,0,0,0,20,1,0,0,0],"split_type":[0,0,0,0,0,0,0,0,0,0,0,0,0,0,0,0,0],"sum_hessian":[1.250315E2,1.4060151E1,1.1097135E2,1.1818587E1,2.2415638E0,1.04987915E2,5.983433E0,1.0728785E1,1.0898033E0,1.0739464E0,1.1676174E0,4.017256E0,1.00970665E2,9.705509E1,3.9155672E0,5.183388E1,4.522121E1],"tree_param":{"num_deleted":"0","num_feature":"23","num_nodes":"17","size_leaf_vector":"1"}},{"base_weights":[-2.749431E-2,2.1140661E-2,-4.0704888E-1,2.2377853E-1,-8.429114E-2,1.7415333E-1,-1.7054689E-1,4.8124662E-1,4.417703E-2,-4.7878695E-1,-9.853405E-3,1.4855495E-1,-1.0112252E-1,6.0559404E-1,-1.0146321E-1,1.4785399E-1,-1.04884274E-1,-1.6207394E-1,1.4259993E-2,1.0468583E-1,-3.7045953E-1,7.055552E-2,1.9737051E-1,-1.6383584E-1,6.8790816E-2,-2.3521796E-2,1.1589675E-1,3.0971854E-3,-1.533171E-1],"categories":[],"categories_nodes":[],"categories_segments":[],"categories_sizes":[],"default_left":[0,0,0,0,0,0,0,0,0,0,0,0,0,0,0,0,0,0,0,0,0,0,0,0,0,0,0,0,0],"id":31,"left_children":[1,3,5,7,9,11,-1,13,15,17,19,-1,-1,21,-1,-1,23,-1,-1,25,27,-1,-1,-1,-1,-1,-1,-1,-1],"loss_changes":[2.268391E0,2.3574998E0,1.4082973E0,1.7237068E0,2.1309676E0,7.903867E-1,0E0,1.7745883E0,1.612013E0,3.984413E-1,2.6080406E0,0E0,0E0,1.11371994E-1,0E0,0E0,2.829086E0,0E0,0E0,2.504856E0,8.198645E-1,0E0,0E0,0E0,0E0,0E0,0E0,0E0,0E0],"parents":[2147483647,0,0,1,1,2,2,3,3,4,4,5,5,7,7,8,8,9,9,10,10,13,13,16,16,19,19,20,20],"right_children":[2,4,6,8,10,12,-1,14,16,18,20,-1,-1,22,-1,-1,24,-1,-1,26,28,-1,-1,-1,-1,-1,-1,-1,-1],"split_conditions":[1.6502581E0,-7.397056E-1,-9.3871945E-1,1.5591195E-1,-1.1752714E0,-1.6148171E-1,-1.7054689E-1,4.872512E-1,-1.2428576E0,7.642277E-1,7.642277E-1,1.4855495E-1,-1.0112252E-1,-6.686014E-1,-1.0146321E-1,1.4785399E-1,3.3031438E-2,-1.6207394E-1,1.4259993E-2,3.0042055E-1,-2.0898627E-2,7.055552E-2,1.9737051E-1,-1.6383584E-1,6.8790816E-2,-2.3521796E-2,1.1589675E-1,3.0971854E-3,-1.533171E-1],"split_indices":[0,20,15,22,15,2,0,8,15,13,13,0,0,10,0,0,12,0,0,13,21,0,0,0,0,0,0,0,0],"split_type":[0,0,0,0,0,0,0,0,0,0,0,0,0,0,0,0,0,0,0,0,0,0,0,0,0,0,0,0,0],"sum_hessian":[1.21417755E2,1.0846383E2,1.2953925E1,3.6735813E1,7.172802E1,2.7988937E0,1.0155031E1,1.4405399E1,2.2330414E1,1.0523712E1,6.1204304E1,1.7385459E0,1.0603478E0,1.2734068E1,1.6713314E0,4.993577E0,1.7336836E1,9.399638E0,1.1240743E0,4.6988922E1,1.42153845E1,2.2558427E0,1.0478225E1,7.1984177E0,1.0138419E1,2.8913729E1,1.8075191E1,4.083233E0,1.0132152E1],"tree_param":{"num_deleted":"0","num_feature":"23","num_nodes":"29","size_leaf_vector":"1"}},{"base_weights":[-1.037041E-2,-2.5452322E-1,7.35918E-2,1.4052002E-1,-3.4954992E-1,4.4182557E-1,-9.072481E-3,1.5447131E-1,-1.8363737E-1,-6.801238E-2,-4.2582843E-1,-5.0530866E-2,6.420715E-1,9.12394E-2,-2.497842E-1,-1.151435E-1,6.450391E-2,2.2258654E-1,-1.157103E-1,-5.006927E-1,8.2262665E-2,1.295745E-1,-1.225564E-1,2.1277265E-1,3.62703E-2,2.5789204E-1,-9.490527E-2,-4.5254567E-1,2.9402462E-1,-9.2668034E-2,1.8699685E-1,-1.6065519E-1,-3.9988518E-2,-8.53284E-2,1.1611927E-1,-6.7456337E-3,1.3458923E-1,-6.589702E-2,9.141159E-2,-1.5924399E-1,-2.3452913E-2,-1.0011525E-1,1.7078438E-1],"categories":[],"categories_nodes":[],"categories_segments":[],"categories_sizes":[],"default_left":[0,0,0,0,0,0,0,0,0,0,0,0,0,0,0,0,0,0,0,0,0,0,0,0,0,0,0,0,0,0,0,0,0,0,0,0,0,0,0,0,0,0,0],"id":32,"left_children":[1,3,5,7,9,11,13,-1,15,17,19,21,23,25,27,-1,-1,29,-1,31,33,-1,-1,-1,-1,35,37,39,41,-1,-1,-1,-1,-1,-1,-1,-1,-1,-1,-1,-1,-1,-1],"loss_changes":[2.317533E0,1.1347575E0,2.5676177E0,8.616612E-1,4.7782993E-1,1.5567031E0,1.7072042E0,0E0,4.1168398E-1,6.601589E-1,7.4024916E-1,1.1085529E0,3.0154943E-1,1.5746747E0,2.4251134E0,0E0,0E0,1.0195572E0,0E0,1.3536406E-1,4.6987587E-1,0E0,0E0,0E0,0E0,1.4345161E0,1.2801489E0,4.1370344E-1,1.2702183E0,0E0,0E0,0E0,0E0,0E0,0E0,0E0,0E0,0E0,0E0,0E0,0E0,0E0,0E0],"parents":[2147483647,0,0,1,1,2,2,3,3,4,4,5,5,6,6,8,8,9,9,10,10,11,11,12,12,13,13,14,14,17,17,19,19,20,20,25,25,26,26,27,27,28,28],"right_children":[2,4,6,8,10,12,14,-1,16,18,20,22,24,26,28,-1,-1,30,-1,32,34,-1,-1,-1,-1,36,38,40,42,-1,-1,-1,-1,-1,-1,-1,-1,-1,-1,-1,-1,-1,-1],"split_conditions":[-7.397056E-1,-1.3312839E0,-9.586549E-1,-1.5356871E0,-6.254944E-1,8.212949E-3,5.586059E-1,1.5447131E-1,8.709094E-1,6.546639E-2,5.8640456E-1,-1.8899757E0,1.0897133E0,4.1281383E-2,1.2241489E0,-1.151435E-1,6.450391E-2,-2.7755418E-1,-1.157103E-1,8.185234E-1,4.9832478E-1,1.295745E-1,-1.225564E-1,2.1277265E-1,3.62703E-2,3.0253103E-1,2.8418725E0,2.024516E0,-1.6338661E-1,-9.2668034E-2,1.8699685E-1,-1.6065519E-1,-3.9988518E-2,-8.53284E-2,1.1611927E-1,-6.7456337E-3,1.3458923E-1,-6.589702E-2,9.141159E-2,-1.5924399E-1,-2.3452913E-2,-1.0011525E-1,1.7078438E-1],"split_indices":[20,16,19,17,2,6,20,0,4,5,6,16,16,15,7,0,0,18,0,15,9,0,0,0,0,2,5,21,13,0,0,0,0,0,0,0,0,0,0,0,0,0,0],"split_type":[0,0,0,0,0,0,0,0,0,0,0,0,0,0,0,0,0,0,0,0,0,0,0,0,0,0,0,0,0,0,0,0,0,0,0,0,0,0,0,0,0,0,0],"sum_hessian":[1.1113883E2,2.7919786E1,8.321905E1,5.3209386E0,2.2598848E1,1.4460211E1,6.8758835E1,2.1961102E0,3.124828E0,5.220832E0,1.7378016E1,4.3969145E0,1.0063297E1,4.8971775E1,1.9787066E1,2.1050448E0,1.0197835E0,2.883013E0,2.3378186E0,1.5158988E1,2.2190282E0,1.7849407E0,2.6119735E0,8.594709E0,1.4685873E0,2.5635365E1,2.3336409E1,1.4535327E1,5.2517376E0,1.3378555E0,1.5451577E0,1.3428539E1,1.7304481E0,1.0375948E0,1.1814334E0,1.0736013E1,1.4899351E1,1.812761E1,5.2087994E0,1.1676327E1,2.8590002E0,1.5361208E0,3.715617E0],"tree_param":{"num_deleted":"0","num_feature":"23","num_nodes":"43","size_leaf_vector":"1"}},{"base_weights":[2.2587532E-2,-3.2695124E-4,1.6563128E-1,-7.9163134E-2,1.5226278E-1,1.4100967E-1,-1.4729962E-1,-2.2360052E-1,2.800793E-1,2.5065774E-1,-3.2002422E-1,-2.0119156E-1,3.1415996E-1,1.07849605E-1,-1.5863459E-1,5.0706434E-1,5.2141194E-4,1.5738969E-3,1.331844E-1,-2.7954785E-2,-1.12074204E-1,-9.554808E-2,1.0046625E-2,1.5672691E-1,-9.899982E-2,5.9903458E-2,2.0070575E-1,-6.8067946E-2,8.6744145E-2],"categories":[],"categories_nodes":[],"categories_segments":[],"categories_sizes":[],"default_left":[0,0,0,0,0,0,0,0,0,0,0,0,0,0,0,0,0,0,0,0,0,0,0,0,0,0,0,0,0],"id":33,"left_children":[1,3,-1,5,7,9,11,13,15,17,19,21,23,-1,-1,25,27,-1,-1,-1,-1,-1,-1,-1,-1,-1,-1,-1,-1],"loss_changes":[1.4685634E0,1.4194864E0,0E0,1.1879075E0,1.9937884E0,1.0355091E0,1.5529156E0,2.1042926E0,1.9313762E0,7.4845105E-1,1.4635533E-2,1.5040245E0,1.0651414E0,0E0,0E0,7.027159E-1,1.0266584E0,0E0,0E0,0E0,0E0,0E0,0E0,0E0,0E0,0E0,0E0,0E0,0E0],"parents":[2147483647,0,0,1,1,3,3,4,4,5,5,6,6,7,7,8,8,9,9,10,10,11,11,12,12,15,15,16,16],"right_children":[2,4,-1,6,8,10,12,14,16,18,20,22,24,-1,-1,26,28,-1,-1,-1,-1,-1,-1,-1,-1,-1,-1,-1,-1],"split_conditions":[1.9238375E0,6.207476E-1,1.6563128E-1,-6.686014E-1,-9.3891144E-2,3.3031438E-2,1.1645962E0,-7.487277E-1,3.0206162E-1,-2.0744865E-1,-2.1234187E-1,7.464816E-1,-7.487277E-1,1.07849605E-1,-1.5863459E-1,7.104905E-1,1.8776982E0,1.5738969E-3,1.331844E-1,-2.7954785E-2,-1.12074204E-1,-9.554808E-2,1.0046625E-2,1.5672691E-1,-9.899982E-2,5.9903458E-2,2.0070575E-1,-6.8067946E-2,8.6744145E-2],"split_indices":[14,5,0,10,15,12,6,14,21,14,4,19,14,0,0,11,9,0,0,0,0,0,0,0,0,0,0,0,0],"split_type":[0,0,0,0,0,0,0,0,0,0,0,0,0,0,0,0,0,0,0,0,0,0,0,0,0,0,0,0,0],"sum_hessian":[1.2001789E2,1.1599755E2,4.0203342E0,7.679979E1,3.919776E1,1.7897427E1,5.8902367E1,9.756868E0,2.9440893E1,1.4827342E1,3.070084E0,5.3247787E1,5.6545773E0,3.2909622E0,6.465906E0,1.579911E1,1.3641784E1,6.9854245E0,7.8419175E0,1.109715E0,1.9603692E0,3.5264256E1,1.7983536E1,4.415868E0,1.2387091E0,6.2222877E0,9.576822E0,7.7495933E0,5.8921905E0],"tree_param":{"num_deleted":"0","num_feature":"23","num_nodes":"29","size_leaf_vector":"1"}},{"base_weights":[-1.3919646E-2,2.897864E-2,-4.5035002E-1,-1.271192E-1,1.6069049E-1,-1.5206012E-1,5.458323E-3,-2.5360912E-1,2.0366657E-1,-1.2927368E-1,2.0428915E-1,-3.7357968E-1,2.1639031E-1,5.5132854E-1,-9.969367E-2,-1.2031484E-1,2.3916923E-1,-1.418159E-1,9.426229E-2,-9.568345E-2,2.2209258E-1,1.8767843E-1,2.674939E-2,4.6320472E-2,-1.3355379E-1,1.2143896E-1,3.0301467E-2],"categories":[],"categories_nodes":[],"categories_segments":[],"categories_sizes":[],"default_left":[0,0,0,0,0,0,0,0,0,0,0,0,0,0,0,0,0,0,0,0,0,0,0,0,0,0,0],"id":34,"left_children":[1,3,5,7,9,-1,-1,11,13,-1,15,17,19,21,23,-1,25,-1,-1,-1,-1,-1,-1,-1,-1,-1,-1],"loss_changes":[2.2332184E0,2.259648E0,2.918632E-1,2.1604517E0,1.62302E0,0E0,0E0,2.1617167E0,1.5838253E0,0E0,1.2805398E0,2.1782212E0,2.5185068E0,1.8132257E-1,8.226589E-1,0E0,1.187402E0,0E0,0E0,0E0,0E0,0E0,0E0,0E0,0E0,0E0,0E0],"parents":[2147483647,0,0,1,1,2,2,3,3,4,4,7,7,8,8,10,10,11,11,12,12,13,13,14,14,16,16],"right_children":[2,4,6,8,10,-1,-1,12,14,-1,16,18,20,22,24,-1,26,-1,-1,-1,-1,-1,-1,-1,-1,-1,-1],"split_conditions":[1.4125351E0,-2.2202134E-1,1.2913512E0,3.2928377E-1,-7.835748E-1,-1.5206012E-1,5.458323E-3,1.6502581E0,-6.686014E-1,-1.2927368E-1,-1.6286533E0,1.6295586E0,-1.6148171E-1,4.6915013E-1,1.6468067E-1,-1.2031484E-1,1.1998384E-1,-1.418159E-1,9.426229E-2,-9.568345E-2,2.2209258E-1,1.8767843E-1,2.674939E-2,4.6320472E-2,-1.3355379E-1,1.2143896E-1,3.0301467E-2],"split_indices":[4,10,0,4,3,0,0,0,10,0,18,15,2,14,14,0,7,0,0,0,0,0,0,0,0,0,0],"split_type":[0,0,0,0,0,0,0,0,0,0,0,0,0,0,0,0,0,0,0,0,0,0,0,0,0,0,0],"sum_hessian":[1.1758532E2,1.0791188E2,9.67344E0,4.9400234E1,5.8511646E1,8.559215E0,1.114225E0,3.59041E1,1.3496138E1,3.4063468E0,5.51053E1,2.8766422E1,7.137676E0,5.9079757E0,7.5881624E0,2.4302745E0,5.2675026E1,2.5415625E1,3.350798E0,3.7238796E0,3.413796E0,4.785381E0,1.1225951E0,4.691085E0,2.897077E0,2.3078903E1,2.959612E1],"tree_param":{"num_deleted":"0","num_feature":"23","num_nodes":"27","size_leaf_vector":"1"}},{"base_weights":[-1.3159934E-2,5.643958E-2,-2.7632046E-1,-3.221003E-1,1.05754204E-1,1.39912E-1,-4.2194653E-1,2.7015913E-2,-1.4504218E-1,1.4154887E-1,-2.7765763E-1,-2.7304795E-1,1.7425716E-1,4.267353E-2,-4.9172184E-1,1.08718365E-1,-1.04138024E-1,4.5909163E-2,2.8196788E-1,1.3033925E-1,-1.4378145E-1,-1.184349E-1,1.7751725E-2,3.0539982E-2,-1.6147582E-1,-1.9576214E-2,8.972521E-2,1.0165493E-1,-1.1177085E-1],"categories":[],"categories_nodes":[],"categories_segments":[],"categories_sizes":[],"default_left":[0,0,0,0,0,0,0,0,0,0,0,0,0,0,0,0,0,0,0,0,0,0,0,0,0,0,0,0,0],"id":35,"left_children":[1,3,5,7,9,11,13,15,-1,17,19,21,-1,-1,23,-1,-1,25,27,-1,-1,-1,-1,-1,-1,-1,-1,-1,-1],"loss_changes":[2.12939E0,1.7533422E0,1.5324563E0,6.250417E-1,1.1679337E0,1.4425962E0,7.8865504E-1,6.755122E-1,0E0,1.0060632E0,1.2648742E0,1.9813183E-1,0E0,0E0,5.0969744E-1,0E0,0E0,1.3234185E0,1.2635679E0,0E0,0E0,0E0,0E0,0E0,0E0,0E0,0E0,0E0,0E0],"parents":[2147483647,0,0,1,1,2,2,3,3,4,4,5,5,6,6,7,7,9,9,10,10,11,11,14,14,17,17,18,18],"right_children":[2,4,6,8,10,12,14,16,-1,18,20,22,-1,-1,24,-1,-1,26,28,-1,-1,-1,-1,-1,-1,-1,-1,-1,-1],"split_conditions":[6.7206633E-1,-1.2561767E0,-2.2202134E-1,-5.6997865E-1,1.2386978E0,3.0253103E-1,-1.4253265E0,2.2015585E-1,-1.4504218E-1,-2.7670052E-2,-6.254944E-1,-6.964286E-1,1.7425716E-1,4.267353E-2,-7.835748E-1,1.08718365E-1,-1.04138024E-1,2.1238951E-1,9.5811594E-1,1.3033925E-1,-1.4378145E-1,-1.184349E-1,1.7751725E-2,3.0539982E-2,-1.6147582E-1,-1.9576214E-2,8.972521E-2,1.0165493E-1,-1.1177085E-1],"split_indices":[7,14,10,6,16,2,14,17,0,16,2,20,0,0,3,0,0,20,9,0,0,0,0,0,0,0,0,0,0],"split_type":[0,0,0,0,0,0,0,0,0,0,0,0,0,0,0,0,0,0,0,0,0,0,0,0,0,0,0,0,0],"sum_hessian":[1.1440798E2,9.109984E1,2.3308144E1,9.862625E0,8.123721E1,6.0513225E0,1.725682E1,3.3809195E0,6.4817057E0,7.487759E1,6.359625E0,3.3214447E0,2.7298777E0,1.7849993E0,1.5471822E1,1.7993742E0,1.5815454E0,4.53301E1,2.954749E1,1.1484046E0,5.2112203E0,2.2929323E0,1.0285125E0,1.0384272E0,1.4433394E1,3.2015217E1,1.3314882E1,2.762875E1,1.91874E0],"tree_param":{"num_deleted":"0","num_feature":"23","num_nodes":"29","size_leaf_vector":"1"}},{"base_weights":[2.9908601E-2,1.0248418E-1,-2.7778324E-1,-8.1228843E-4,2.4822846E-1,-3.7647963E-1,1.2543765E-1,2.1070711E-1,-1.830247E-1,4.9040413E-1,9.289491E-2,-1.1994186E-2,-1.5730917E-1,5.4679666E-2,3.911157E-1,2.3327512E-1,-3.3328876E-1,-9.591604E-2,5.971298E-1,-7.40756E-2,1.9209851E-1,-1.1570487E-1,3.3956403E-1,1.12696536E-1,-3.7139185E-2,-4.959935E-2,1.6576973E-1,-8.169972E-2,1.6337897E-1,1.0414418E-1,-1.2125741E-1,2.1078669E-1,-2.066433E-2,1.3766758E-1,-4.396022E-2,-8.0345E-3,1.7047177E-1],"categories":[],"categories_nodes":[],"categories_segments":[],"categories_sizes":[],"default_left":[0,0,0,0,0,0,0,0,0,0,0,0,0,0,0,0,0,0,0,0,0,0,0,0,0,0,0,0,0,0,0,0,0,0,0,0,0],"id":36,"left_children":[1,3,5,7,9,11,-1,13,15,17,19,21,-1,23,25,27,29,-1,31,33,-1,-1,35,-1,-1,-1,-1,-1,-1,-1,-1,-1,-1,-1,-1,-1,-1],"loss_changes":[2.300539E0,1.2506213E0,1.5096638E0,1.9503697E0,1.2505207E0,9.514804E-1,0E0,6.378751E-1,1.7781897E0,1.3347645E0,2.07882E0,9.39172E-1,0E0,8.325646E-1,1.0525528E0,1.3757334E0,1.1238E0,0E0,8.942027E-1,7.595135E-1,0E0,0E0,3.2532153E-1,0E0,0E0,0E0,0E0,0E0,0E0,0E0,0E0,0E0,0E0,0E0,0E0,0E0,0E0],"parents":[2147483647,0,0,1,1,2,2,3,3,4,4,5,5,7,7,8,8,9,9,10,10,11,11,13,13,14,14,15,15,16,16,18,18,19,19,22,22],"right_children":[2,4,6,8,10,12,-1,14,16,18,20,22,-1,24,26,28,30,-1,32,34,-1,-1,36,-1,-1,-1,-1,-1,-1,-1,-1,-1,-1,-1,-1,-1,-1],"split_conditions":[9.324442E-1,5.8640456E-1,1.9541607E0,-6.4723784E-1,-1.3382691E-1,-6.254944E-1,1.2543765E-1,3.0253103E-1,-1.0063057E0,-7.945807E-1,1.3825585E0,4.1300583E-1,-1.5730917E-1,-6.531516E-1,-1.4095562E0,3.0042055E-1,-1.1860064E0,-9.591604E-2,9.1517705E-1,-1.4095562E0,1.9209851E-1,-1.1570487E-1,4.5276964E-1,1.12696536E-1,-3.7139185E-2,-4.959935E-2,1.6576973E-1,-8.169972E-2,1.6337897E-1,1.0414418E-1,-1.2125741E-1,2.1078669E-1,-2.066433E-2,1.3766758E-1,-4.396022E-2,-8.0345E-3,1.7047177E-1],"split_indices":[0,6,4,14,20,2,0,2,15,11,14,15,0,20,18,13,19,0,17,18,0,0,18,0,0,0,0,0,0,0,0,0,0,0,0,0,0],"split_type":[0,0,0,0,0,0,0,0,0,0,0,0,0,0,0,0,0,0,0,0,0,0,0,0,0,0,0,0,0,0,0,0,0,0,0,0,0],"sum_hessian":[1.0074554E2,8.205748E1,1.8688055E1,4.8603855E1,3.3453625E1,1.6768843E1,1.9192108E0,2.2420671E1,2.6183186E1,1.2229653E1,2.1223972E1,5.1519947E0,1.1616849E1,1.2721496E1,9.699175E0,6.797787E0,1.9385397E1,1.1912787E0,1.1038375E1,1.6926096E1,4.2978764E0,2.4503398E0,2.701655E0,4.1511774E0,8.570318E0,2.1758711E0,7.5233035E0,2.6382782E0,4.1595087E0,1.4616975E0,1.79237E1,9.481575E0,1.5567999E0,1.387462E0,1.5538634E1,1.3775904E0,1.3240645E0],"tree_param":{"num_deleted":"0","num_feature":"23","num_nodes":"37","size_leaf_vector":"1"}},{"base_weights":[1.4506965E-3,-1.795533E-1,5.7643365E-2,2.1062729E-1,-2.892825E-1,3.761578E-1,2.813187E-3,4.5929983E-1,-1.5384893E-1,1.16918676E-1,-3.711477E-1,-2.4068238E-1,5.2195066E-1,-3.621581E-1,6.5167435E-2,4.8865773E-2,1.5904003E-1,-1.0202915E-1,4.4877686E-2,-4.814308E-1,-1.24959955E-2,-9.1509394E-2,-1.493883E-2,2.020329E-1,5.2391145E-2,9.7945906E-2,-1.4911684E-1,1.18771136E-1,-3.2799676E-1,-1.5928197E-1,-3.7407514E-2,1.3691951E-1,-1.1919904E-1,-1.21391006E-1,1.433722E-1,-4.942761E-3,7.224371E-2,-1.6424146E-1,3.1315267E-2],"categories":[],"categories_nodes":[],"categories_segments":[],"categories_sizes":[],"default_left":[0,0,0,0,0,0,0,0,0,0,0,0,0,0,0,0,0,0,0,0,0,0,0,0,0,0,0,0,0,0,0,0,0,0,0,0,0,0,0],"id":37,"left_children":[1,3,5,7,9,11,13,15,17,-1,19,21,23,25,27,-1,-1,-1,-1,29,31,-1,-1,-1,33,-1,-1,35,37,-1,-1,-1,-1,-1,-1,-1,-1,-1,-1],"loss_changes":[1.209504E0,1.2671564E0,1.5833763E0,6.8360114E-1,1.3904045E0,1.3231883E0,1.8079764E0,3.3205748E-3,2.4821666E-1,0E0,8.052907E-1,2.4487287E-2,7.533417E-1,1.239293E0,1.4681528E0,0E0,0E0,0E0,0E0,2.104013E-1,1.2370542E0,0E0,0E0,0E0,9.301659E-1,0E0,0E0,1.0011151E0,8.544992E-1,0E0,0E0,0E0,0E0,0E0,0E0,0E0,0E0,0E0,0E0],"parents":[2147483647,0,0,1,1,2,2,3,3,4,4,5,5,6,6,7,7,8,8,10,10,11,11,12,12,13,13,14,14,19,19,20,20,24,24,27,27,28,28],"right_children":[2,4,6,8,10,12,14,16,18,-1,20,22,24,26,28,-1,-1,-1,-1,30,32,-1,-1,-1,34,-1,-1,36,38,-1,-1,-1,-1,-1,-1,-1,-1,-1,-1],"split_conditions":[-4.3209866E-1,-5.86379E-1,-4.8981482E-1,-4.6173733E-1,-1.425947E0,-7.487277E-1,-5.86379E-1,-1.425947E0,1.0370287E0,1.16918676E-1,1.1346574E0,-3.1407037E-1,5.8733463E-1,-1.4095562E0,2.010879E0,4.8865773E-2,1.5904003E-1,-1.0202915E-1,4.4877686E-2,7.0838296E-1,1.3541378E0,-9.1509394E-2,-1.493883E-2,2.020329E-1,1.6716447E0,9.7945906E-2,-1.4911684E-1,-1.3553876E-1,2.3283138E0,-1.5928197E-1,-3.7407514E-2,1.3691951E-1,-1.1919904E-1,-1.21391006E-1,1.433722E-1,-4.942761E-3,7.224371E-2,-1.6424146E-1,3.1315267E-2],"split_indices":[7,8,5,12,17,14,8,17,18,0,17,18,1,18,10,0,0,0,0,18,17,0,0,0,1,0,0,1,7,0,0,0,0,0,0,0,0,0,0],"split_type":[0,0,0,0,0,0,0,0,0,0,0,0,0,0,0,0,0,0,0,0,0,0,0,0,0,0,0,0,0,0,0,0,0,0,0,0,0,0,0],"sum_hessian":[1.16898186E2,2.7173489E1,8.97247E1,5.7626934E0,2.1410793E1,1.2316486E1,7.740821E1,3.2708883E0,2.491805E0,1.89904E0,1.9511755E1,2.2301245E0,1.0086362E1,1.0593626E1,6.681459E1,1.2672877E0,2.0036006E0,1.4692178E0,1.0225873E0,1.4661194E1,4.85056E0,1.220659E0,1.0094655E0,7.2977223E0,2.7886395E0,1.5026199E0,9.091006E0,5.9412273E1,7.4023137E0,1.2445645E1,2.2155488E0,2.1026552E0,2.7479048E0,1.3681931E0,1.4204464E0,2.8591715E1,3.0820559E1,4.733454E0,2.6688597E0],"tree_param":{"num_deleted":"0","num_feature":"23","num_nodes":"39","size_leaf_vector":"1"}},{"base_weights":[-4.501673E-2,-4.0859818E-3,-4.422717E-1,-4.0546843E-1,3.9912205E-2,-1.514989E-1,-3.257829E-3,-1.4680636E-1,2.5538014E-2,-1.127374E-1,1.23638704E-1,-3.7573573E-1,1.0207571E-1,-3.4970242E-1,1.9528925E-1,-1.627825E-1,9.242686E-2,-1.3554618E-1,7.0257075E-2,-1.607981E-1,1.0067906E-1,9.975378E-2,-3.743001E-2],"categories":[],"categories_nodes":[],"categories_segments":[],"categories_sizes":[],"default_left":[0,0,0,0,0,0,0,0,0,0,0,0,0,0,0,0,0,0,0,0,0,0,0],"id":38,"left_children":[1,3,5,7,9,-1,-1,-1,-1,11,13,15,17,19,21,-1,-1,-1,-1,-1,-1,-1,-1],"loss_changes":[1.8296449E0,1.8373613E0,2.7897048E-1,4.6459782E-1,1.2133784E0,0E0,0E0,0E0,0E0,1.9458926E0,2.1399133E0,1.9237335E0,1.5233448E0,1.2508483E0,2.3996608E0,0E0,0E0,0E0,0E0,0E0,0E0,0E0,0E0],"parents":[2147483647,0,0,1,1,2,2,3,3,4,4,9,9,10,10,11,11,12,12,13,13,14,14],"right_children":[2,4,6,8,10,-1,-1,-1,-1,12,14,16,18,20,22,-1,-1,-1,-1,-1,-1,-1,-1],"split_conditions":[1.3825585E0,-7.835748E-1,1.2913512E0,6.7206633E-1,-4.442582E-1,-1.514989E-1,-3.257829E-3,-1.4680636E-1,2.5538014E-2,-1.442765E-1,-4.8981482E-1,2.1321695E0,-9.5040613E-1,2.1863747E0,6.207476E-1,-1.627825E-1,9.242686E-2,-1.3554618E-1,7.0257075E-2,-1.607981E-1,1.0067906E-1,9.975378E-2,-3.743001E-2],"split_indices":[14,3,0,7,14,0,0,0,0,0,5,21,17,19,5,0,0,0,0,0,0,0,0],"split_type":[0,0,0,0,0,0,0,0,0,0,0,0,0,0,0,0,0,0,0,0,0,0,0],"sum_hessian":[1.1163582E2,1.0212388E2,9.51194E0,9.276998E0,9.284688E1,8.155602E0,1.3563372E0,7.9245253E0,1.3524728E0,3.276445E1,6.008243E1,1.4393357E1,1.8371092E1,7.3888974E0,5.269353E1,1.1735963E1,2.6573942E0,3.071937E0,1.5299155E1,5.980919E0,1.4079789E0,3.6853676E1,1.5839857E1],"tree_param":{"num_deleted":"0","num_feature":"23","num_nodes":"23","size_leaf_vector":"1"}},{"base_weights":[-4.861445E-2,1.4162618E-1,-1.556535E-1,2.771796E-1,-3.917656E-1,1.8075281E-1,-2.55081E-1,3.5960987E-1,-3.1137118E-1,-1.4913987E-1,3.3480737E-2,-2.6444927E-1,3.790713E-1,-2.5328526E-2,-3.6133736E-1,4.0717977E-1,-1.0310649E-1,-1.2250066E-1,-2.3358965E-3,7.231077E-2,-1.4016932E-1,5.993356E-1,-1.3088521E-1,-3.2698175E-1,4.5535576E-1,-1.644445E-1,-1.2335267E-1,1.352213E-1,-3.878478E-2,5.9078444E-2,1.999333E-1,3.9667405E-2,-1.0473958E-1,1.00752324E-1,-1.544053E-1,2.0496652E-1,6.4165443E-3,4.474526E-2,-9.4972335E-2],"categories":[],"categories_nodes":[],"categories_segments":[],"categories_sizes":[],"default_left":[0,0,0,0,0,0,0,0,0,0,0,0,0,0,0,0,0,0,0,0,0,0,0,0,0,0,0,0,0,0,0,0,0,0,0,0,0,0,0],"id":39,"left_children":[1,3,5,7,9,11,13,15,17,-1,-1,19,21,23,25,27,-1,-1,-1,-1,-1,29,31,33,35,-1,37,-1,-1,-1,-1,-1,-1,-1,-1,-1,-1,-1,-1],"loss_changes":[2.0703151E0,2.7650862E0,2.215073E0,1.5616617E0,4.723363E-1,1.458055E0,1.2228866E0,1.0323677E0,1.2065914E-1,0E0,0E0,6.58799E-1,1.3196658E0,2.6189187E0,1.4631906E0,6.52792E-1,0E0,0E0,0E0,0E0,0E0,8.199763E-2,2.8469634E-1,1.5474343E0,6.7622364E-1,0E0,9.124562E-1,0E0,0E0,0E0,0E0,0E0,0E0,0E0,0E0,0E0,0E0,0E0,0E0],"parents":[2147483647,0,0,1,1,2,2,3,3,4,4,5,5,6,6,7,7,8,8,11,11,12,12,13,13,14,14,15,15,21,21,22,22,23,23,24,24,26,26],"right_children":[2,4,6,8,10,12,14,16,18,-1,-1,20,22,24,26,28,-1,-1,-1,-1,-1,30,32,34,36,-1,38,-1,-1,-1,-1,-1,-1,-1,-1,-1,-1,-1,-1],"split_conditions":[-4.3209866E-1,6.591166E-1,-5.6997865E-1,1.2769685E0,6.207476E-1,-5.7973564E-1,-4.9697545E-1,8.709094E-1,4.5276964E-1,-1.4913987E-1,3.3480737E-2,-5.86379E-1,-2.1234187E-1,3.2928377E-1,3.675624E-1,1.2305565E0,-1.0310649E-1,-1.2250066E-1,-2.3358965E-3,7.231077E-2,-1.4016932E-1,-4.8981482E-1,9.2038944E-2,-7.835748E-1,-5.7973564E-1,-1.644445E-1,6.546639E-2,1.352213E-1,-3.878478E-2,5.9078444E-2,1.999333E-1,3.9667405E-2,-1.0473958E-1,1.00752324E-1,-1.544053E-1,2.0496652E-1,6.4165443E-3,4.474526E-2,-9.4972335E-2],"split_indices":[7,17,6,19,5,19,1,4,18,0,0,8,4,4,19,2,0,0,0,0,0,5,3,3,19,0,5,0,0,0,0,0,0,0,0,0,0,0,0],"split_type":[0,0,0,0,0,0,0,0,0,0,0,0,0,0,0,0,0,0,0,0,0,0,0,0,0,0,0,0,0,0,0,0,0,0,0,0,0,0,0],"sum_hessian":[9.9586975E1,3.5741123E1,6.384585E1,2.8881638E1,6.859484E0,1.4378663E1,4.946719E1,2.567472E1,3.2069168E0,5.682405E0,1.1770796E0,4.3284144E0,1.0050249E1,1.6034662E1,3.3432526E1,2.4442513E1,1.2322078E0,2.1690738E0,1.0378431E0,1.1852448E0,3.1431699E0,6.8962846E0,3.153964E0,1.0048492E1,5.98617E0,1.7999868E1,1.5432659E1,2.2754745E1,1.6877679E0,1.5480565E0,5.3482285E0,1.6087123E0,1.5452517E0,2.0434306E0,8.005062E0,3.5485487E0,2.4376209E0,6.4973845E0,8.935274E0],"tree_param":{"num_deleted":"0","num_feature":"23","num_nodes":"39","size_leaf_vector":"1"}},{"base_weights":[2.8937485E-2,9.201139E-2,-2.6603875E-1,1.5059705E-1,5.736135E-2,-4.0333933E-1,3.4109965E-1,2.9495496E-2,1.7183138E-1,-1.459251E-1,5.032749E-3,1.4858294E-1,-6.805141E-3,1.1976614E-1,-1.3365553E-1,8.8816516E-2,-8.979765E-2,6.8390265E-2,-7.978928E-2,1.4343207E-1,-6.900051E-2],"categories":[],"categories_nodes":[],"categories_segments":[],"categories_sizes":[],"default_left":[0,0,0,0,0,0,0,0,0,0,0,0,0,0,0,0,0,0,0,0,0],"id":40,"left_children":[1,3,5,-1,7,9,11,13,-1,-1,15,-1,-1,17,19,-1,-1,-1,-1,-1,-1],"loss_changes":[1.8525205E0,1.1316539E0,1.6018316E0,0E0,1.081128E0,5.0401354E-1,2.2332543E-1,1.0997401E0,0E0,0E0,3.9764738E-1,0E0,0E0,2.0598345E0,1.6827399E0,0E0,0E0,0E0,0E0,0E0,0E0],"parents":[2147483647,0,0,1,1,2,2,4,4,5,5,6,6,7,7,10,10,13,13,14,14],"right_children":[2,4,6,-1,8,10,12,14,-1,-1,16,-1,-1,18,20,-1,-1,-1,-1,-1,-1],"split_conditions":[9.324442E-1,-1.666499E0,1.7138714E0,1.5059705E-1,2.6194563E0,1.2215626E0,2.7172523E0,4.1300583E-1,1.7183138E-1,-1.459251E-1,-6.254944E-1,1.4858294E-1,-6.805141E-3,5.586059E-1,-8.1638753E-1,8.8816516E-2,-8.979765E-2,6.8390265E-2,-7.978928E-2,1.4343207E-1,-6.900051E-2],"split_indices":[0,16,11,0,13,22,11,15,0,0,2,0,0,20,14,0,0,0,0,0,0],"split_type":[0,0,0,0,0,0,0,0,0,0,0,0,0,0,0,0,0,0,0,0,0],"sum_hessian":[9.72538E1,8.0688484E1,1.6565313E1,5.236996E0,7.545149E1,1.3783852E1,2.781461E0,7.258441E1,2.8670797E0,1.129494E1,2.4889126E0,1.6996605E0,1.0818005E0,4.6900513E1,2.5683899E1,1.2862768E0,1.2026356E0,3.694582E1,9.954691E0,2.9554572E0,2.2728441E1],"tree_param":{"num_deleted":"0","num_feature":"23","num_nodes":"21","size_leaf_vector":"1"}},{"base_weights":[2.0921133E-2,-1.30699435E-2,3.6989924E-1,-9.675748E-2,1.5710925E-1,